#pragma once
///includes
#include <ap_fixed.h>                                   // Bring the ap_fixed type
#include <ap_int.h>                                     // Brings the ap_uint type
#include <hls_stream.h>                                 // Brings the stream
#include "common/xf_common.h"                           // Brings the macros for channel and data width
#include "common/xf_infra.h"
//#include "common/xf_utility.h"
///defines
#define NPC1                       XF_NPPC1             // Define 1 pixel version
#define NR_OF_IMAGE_CHANNELS       3
#define SHIFT_LEFT_WITH_8_BITS     256
#define SHIFT_LEFT_WITH_16_BITS    65536
///--------------------------------------------------for FSRCNN (scale_factor = 2)---------------------------------------------------------
//*Note: For different upscaling factors, different decorrelation layer parameters (weights and biases) are needed.
//       This wrapper contains only the network parameters for scale_factor = 2.
//-----------------------------------------------------------------------------------------------------------------------------------------
#define MAX_OUT_CHANNELS           56
//
#define MAX_IN_HEIGHT              512                  // at least input image height
#define MAX_IN_WIDTH               512                  // at least input image width
#define MAX_OUT_HEIGHT             1024                 // at least scale_factor *input image height
#define MAX_OUT_WIDTH              1024                 // at least scale_factor *input image width
#define MAX_EXPANDED_HEIGHT        1037                 // at least scale_factor *(input image height + PADDING_NUMBER_LAYER8*2)*2 + sqrt(FILTERSIZE_LAYER8)
#define MAX_EXPANDED_WIDTH         1037                 // at least scale_factor *(input image width + PADDING_NUMBER_LAYER8*2)*2 + sqrt(FILTERSIZE_LAYER8)
#define MAX_PAD_HEIGHT             516                  // at least input image height + PADDING_NUMBER_LAYER1*2
#define MAX_PAD_WIDTH              516                  // at least input image height + PADDING_NUMBER_LAYER1*2
//
#define CHANNELS_LAYER1            1
#define FILTERSIZE_LAYER1          25
#define FILTERS_LAYER1             56
#define CHANNELS_LAYER2            56
#define FILTERSIZE_LAYER2          1
#define FILTERS_LAYER2             12
#define CHANNELS_LAYER3            12
#define FILTERSIZE_LAYER3          9
#define FILTERS_LAYER3             12
#define CHANNELS_LAYER4            12
#define FILTERSIZE_LAYER4          9
#define FILTERS_LAYER4             12
#define CHANNELS_LAYER5            12
#define FILTERSIZE_LAYER5          9
#define FILTERS_LAYER5             12
#define CHANNELS_LAYER6            12
#define FILTERSIZE_LAYER6          9
#define FILTERS_LAYER6             12
#define CHANNELS_LAYER7            12
#define FILTERSIZE_LAYER7          1
#define FILTERS_LAYER7             56
#define CHANNELS_LAYER8            56
#define FILTERSIZE_LAYER8          81
#define FILTERS_LAYER8             1
#define MAX_FILTERSIZE             81
///--------------------------------------------------------------------------------------------------------------------
///WEIGHTS FOR CORRELATION/DECORRELATION
///--------------------------------------------------------------------------------------------------------------------
///layer 1
static double weights_layer1[1][25][56] = {
     { { -0.048500508069992, 0.127937406301498, 0.026852067559958, 0.051576107740402, -0.012791476212442, 0.152705967426300, -0.028508158400655, 0.238521337509155, -0.027339287102222, 0.023422211408615, -0.000134438989335, 0.036324206739664, -0.009937692433596, -0.025811525061727, 0.001569756073877, -0.036106340587139, 0.018530420958996, 0.016016885638237, -0.038906343281269, -0.017413334921002, -0.102368272840977, 0.099962644279003, -0.071646831929684, 0.017224108800292, -0.041033178567886, 0.052184190601110, 0.072642669081688, 0.006968093570322, -0.043834615498781, -0.068194255232811, 0.013368212617934, -0.058680243790150, 0.000637446122710, -0.019083200022578, -0.183523550629616, -0.011071007698774, -0.053071938455105, 0.063575237989426, 0.140569776296616, 0.012011379934847, -0.129906982183456, -0.027637552469969, -0.039114724844694, 0.054220151156187, 0.014983264729381, 0.100018389523029, 0.005192528944463, -0.020848914980888, 0.036428734660149, -0.073082633316517, 0.050885245203972, 0.021215310320258, -0.087538391351700, 0.015329200774431, -0.037429254502058, 0.047638125717640}, { 0.178534775972366, -0.051558446139097, -0.043121144175529, 0.037316612899303, -0.034231144934893, -0.169269487261772, -0.003665337571874, -0.290945738554001, -0.029852129518986, 0.060740508139133, -0.076750352978706, -0.010227506048977, 0.001270138542168, -0.001840771641582, 0.018653843551874, 0.069331228733063, -0.025235217064619, -0.092523045837879, 0.128097698092461, 0.011587754823267, 0.118164770305157, -0.392784118652344, 0.019759282469749, -0.007515708450228, 0.047773886471987, -0.148400753736496, 0.072903804481030, -0.050895150750875, 0.204236209392548, 0.012188524007797, 0.003917800262570, 0.075890585780144, 0.006268559023738, 0.068790391087532, -0.161814704537392, -0.060636650770903, 0.044443611055613, 0.005622167605907, 0.177813693881035, 0.067217893898487, 0.109432034194469, 0.054549373686314, 0.008718370459974, 0.022481795400381, 0.109092660248280, 0.006754922214895, -0.016602579504251, 0.108334459364414, 0.036647535860538, 0.088277615606785, 0.187709838151932, -0.005449443589896, 0.232848688960075, 0.174640864133835, -0.029460120946169, -0.241668522357941 }, { 0.185639739036560, 0.078960612416267, 0.084068827331066, -0.170881539583206, -0.044548869132996, 0.384793251752853, 0.006220190785825, -0.338336974382401, 0.118159957230091, 0.933864653110504, 0.251842886209488, -0.125614777207375, -0.138471156358719, 0.133227482438087, 0.031332425773144, 0.022481855005026, 0.857578814029694, 0.026090282946825, -0.062953919172287, -0.095150642096996, -0.099422000348568, -0.026430815458298, -0.201836794614792, -0.019062766805291, 0.055696267634630, 0.034946244210005, 0.009419191628695, -0.035343557596207, -0.084321156144142, 0.009069681167603, 0.161371827125549, -0.177644044160843, -0.096547707915306, -0.088038824498653, 0.021100331097841, 0.122979074716568, 0.011903411708772, 0.011512250639498, -0.187294721603394, 1.054883122444153, -0.279987037181854, -0.024919159710407, -0.014310631901026, -0.041772492229939, -0.000489957630634, -0.203197821974754, 0.099301062524319, -0.205927416682243, -0.089916087687016, 0.147096842527390, 0.035812065005302, -0.020577171817422, -0.112212099134922, -0.042043406516314, 0.132507964968681, 0.054815914481878 }, { -0.034994699060917, -0.002338457852602, -0.005183856934309, 0.048913769423962, 0.092981703579426, -0.136164978146553, 0.073483802378178, 0.352899312973022, 0.119680665433407, 0.034045256674290, 0.033007722347975, 0.051096502691507, -0.039454918354750, -0.008466742001474, -0.021857349202037, 0.124405406415462, -0.095152735710144, 0.010630954988301, -0.070624403655529, 0.035816065967083, 0.025261675938964, 0.372295975685120, 0.022620867937803, -0.033502910286188, -0.002366398693994, 0.236219093203545, -0.050855688750744, 0.072896085679531, -0.043891582638025, -0.025715664029121, -0.139662668108940, -0.158378258347511, 0.018872277811170, -0.070101998746395, -0.064208649098873, -0.110864527523518, 0.040486052632332, -0.096087910234928, 0.060475371778011, -0.013320798985660, 0.109940342605114, 0.047794237732887, -0.094143018126488, 0.008270480670035, -0.014676052145660, -0.027971753850579, -0.008253994397819, -0.068769551813602, 0.028830103576183, -0.105584442615509, 0.025119490921497, 0.005357977934182, 0.040902927517891, 0.017095532268286, -0.009541550651193, 0.050830945372581 }, { 0.014159973710775, 0.058127574622631, -0.040441747754812, -0.005798648577183, 0.229390680789948, -0.057109560817480, -0.035416163504124, 0.017358589917421, -0.131592825055122, 0.026039732620120, -0.009457799606025, 0.025945998728275, 0.084219619631767, 0.049773078411818, 0.019061690196395, 0.007277171593159, 0.040734853595495, 0.016619125381112, 0.002768532605842, -0.023224212229252, -0.031601767987013, -0.023359119892120, 0.021064644679427, -0.030680811032653, 0.022746190428734, -0.112642228603363, -0.081229850649834, 0.004112735390663, -0.045858196914196, 0.002247924450785, 0.019984085112810, 0.100819192826748, -0.001848018378951, -0.096354864537716, -0.009780732914805, -0.014033533632755, -0.028339790180326, 0.042464375495911, -0.082231089472771, 0.043298047035933, -0.069770395755768, -0.063752122223377, 0.310618519783020, -0.031811915338039, 0.035503253340721, 0.027847027406096, 0.005984739866108, 0.123555943369865, 0.053659338504076, 0.088499866425991, -0.011447592638433, 0.008669044822454, -0.049691952764988, 0.011774912476540, -0.000917268916965, 0.004705948289484 }, { 0.059903152287006, 0.055271994322538, -0.009209712967277, -0.043302156031132, 0.008763273246586, 0.004787376616150, 0.058233425021172, -0.213897168636322, 0.042373705655336, -0.062673106789589, -0.160693153738976, 0.036121662706137, 0.037954583764076, 0.085293836891651, -0.043670807033777, 0.062290068715811, -0.007343345787376, 0.029319714754820, 0.034137308597565, 0.018059935420752, -0.014173161238432, -0.113147020339966, 0.131350040435791, 0.009395187720656, -0.069523386657238, -0.030845845118165, -0.030256770551205, 0.295511454343796, 0.003121803980321, 0.078645616769791, -0.057935662567616, 0.135490939021111, 0.018724424764514, -0.182408586144447, 0.014019732363522, -0.038403693586588, -0.050442490726709, -0.027021102607250, 0.045845139771700, -0.025772217661142, 0.114247806370258, 0.145665317773819, 0.043694879859686, 0.087799318134785, 0.074341893196106, -0.135552629828453, -0.042732764035463, 0.015670929104090, 0.033348795026541, -0.107522144913673, 0.042798265814781, -0.013732196763158, 0.071588009595871, 0.257610142230988, 0.124871276319027, -0.088401108980179 }, { -0.012615465559065, -0.036878976970911, 0.010823051445186, -0.138002306222916, 0.113562285900116, 0.061176925897598, -0.020560549572110, 0.839732229709625, 0.064880363643169, 0.029496796429157, 0.209762439131737, -0.075555972754955, -0.168724879622459, 0.022384818643332, 0.011983653530478, 0.113086409866810, 0.068887963891029, -0.080621749162674, 0.133688747882843, -0.018219117075205, -0.017999248579144, 0.196776673197746, -0.183527693152428, -0.002648891415447, 0.063835427165031, 0.165654346346855, 0.022382218390703, -0.429438352584839, 0.139240279793739, -0.007141507696360, -0.089545875787735, -0.210557386279106, -0.060842532664537, -0.079334959387779, -0.150308102369308, 0.143086835741997, 0.065945610404015, 0.007303098216653, -0.482639431953430, 0.034186664968729, -0.070467449724674, 0.078793242573738, 0.023300625383854, -0.144882068037987, -0.289769738912582, 0.250115245580673, 0.059312563389540, -0.166283935308456, -0.078174769878387, 0.315860271453857, -0.131384104490280, 0.006337365601212, -0.092083111405373, -0.148781508207321, -0.075321756303310, 0.358029007911682 }, { 0.381121873855591, 0.162646815180779, -0.093076191842556, 0.309607148170471, 0.018506618216634, 0.043381489813328, -0.090958163142204, -0.460131704807281, 0.403579324483871, -1.415042519569397, 0.237860500812531, 0.153279587626457, 0.406521826982498, -0.159189596772194, -0.064499691128731, -0.274551123380661, -0.650895774364471, 0.149107053875923, -0.062191437929869, 0.234680935740471, -0.125041261315346, 0.533604502677917, 0.197937428951263, -0.111500538885593, 0.055082648992538, -0.424679428339005, 0.042473118752241, 0.141301721334457, 0.116210773587227, -0.035729471594095, 0.016633182764053, 0.599248170852661, 0.306283563375473, 0.041201680898666, 0.182211235165596, -0.256669759750366, -0.023228920996189, 0.103190585970879, 0.578077554702759, -1.335449337959290, 0.406773090362549, -0.155918300151825, 0.109127134084702, -0.159323304891586, 0.182308122515678, 0.458287030458450, -0.207149282097816, -0.357882529497147, 0.064371809363365, -0.445216298103333, 0.425702720880508, -0.039360638707876, 0.169745728373528, -0.489862859249115, -0.161687314510345, -0.240937113761902 }, { 0.220336392521858, 0.029983121901751, -0.118742868304253, -0.068818330764771, -0.982115149497986, -0.230018138885498, -0.206971034407616, -0.325797468423843, -0.813636600971222, 0.035232085734606, 0.095572449266911, 0.061250951141119, 0.059436511248350, 0.021761126816273, 0.137466907501221, -0.202178269624710, 0.095529459416866, -0.147043883800507, 0.127311348915100, -0.061709813773632, 0.206971049308777, -0.526230037212372, 0.022736001759768, -0.021121472120285, 0.012801997363567, 0.608195364475250, 0.187603950500488, -0.030666876584291, 0.131340146064758, -0.000264988600975, 0.301861643791199, 0.335111379623413, -0.103686116635799, -0.021633183583617, -0.019245393574238, 0.163575634360313, -0.003468406153843, 0.015216175466776, -0.026794118806720, 0.082790546119213, -0.087584368884563, 0.118510603904724, 0.115115620195866, 0.262348651885986, -0.046828802675009, -0.153005838394165, 0.053366634994745, 0.734265327453613, 0.104453064501286, 0.302292048931122, -0.019242629408836, -0.013335814699531, 0.025623563677073, -0.026404794305563, -0.123331330716610, -0.038709677755833 }, { -0.091006599366665, -0.057060036808252, 0.255522608757019, 0.046635605394840, -0.124133214354515, 0.311557203531265, 0.127935618162155, 0.079676769673824, 0.226879596710205, -0.038412827998400, -0.053418308496475, -0.087709382176399, -0.103997826576233, -0.059612046927214, 0.000470885948744, 0.021640311926603, -0.026648771017790, 0.015125858597457, -0.004584146663547, 0.034542754292488, -0.130521267652512, 0.037050902843475, -0.015099477022886, 0.016786692664027, -0.003528888802975, -0.272630989551544, 0.156675159931183, 0.055517315864563, 0.053374234586954, 0.030228365212679, -0.082079149782658, -0.106803767383099, 0.041828993707895, 0.208571314811707, 0.055658921599388, -0.035141535103321, -0.018560377880931, 0.044368188828230, 0.159894198179245, -0.042610276490450, 0.130351930856705, 0.043937198817730, -1.062635779380798, -0.023469096049666, -0.006875339895487, -0.218081623315811, -0.042259346693754, -0.190366372466087, -0.035650063306093, -0.321950674057007, 0.170190259814262, -0.007110303733498, 0.008036918006837, -0.022769853472710, -0.021927556023002, 0.063470803201199 }, { 0.142036214470863, 0.001507333945483, 0.111371226608753, 0.181405365467072, 0.063442304730415, 0.047627434134483, -0.158009320497513, -0.156544253230095, -0.144752889871597, 0.034430898725986, 0.401011168956757, 0.108469381928444, 0.111151732504368, -0.099270381033421, 0.088375441730022, -0.193870633840561, -0.007571112364531, -0.166488662362099, -0.738270878791809, -0.037784174084663, 0.042879607528448, 0.005232844501734, 0.001007971935906, -0.115364335477352, 0.098936811089516, -0.127195402979851, 0.024147655814886, 0.105755597352982, 0.055647831410170, 0.872101545333862, 0.457774132490158, 0.067731291055679, 0.005583121441305, 0.200757071375847, -0.106643594801426, 0.085525140166283, -0.641744196414948, 0.066704958677292, -0.262004762887955, 0.031874101608992, 0.010699894279242, 0.062180247157812, -0.006879600230604, 0.082938976585865, -0.209458947181702, -0.015018235892057, 0.042599480599165, 0.179743036627769, -0.051701385527849, 0.124735981225967, 0.083942748606205, 0.010127853602171, 0.421296745538712, -0.039178851991892, -0.037569247186184, 0.247232735157013 }, { 0.346038520336151, 0.266281396150589, -0.168619960546494, -0.115452043712139, -0.199530914425850, -0.184876650571823, 0.393098592758179, -0.056767445057631, 0.318230658769608, -0.090963333845139, -0.249157652258873, -0.185191139578819, 0.049193657934666, 0.098267309367657, 0.025820614770055, -0.219124570488930, -0.057473476976156, 0.317375808954239, 0.078239999711514, 0.145080447196960, -0.171181395649910, 0.122343122959137, -0.268445223569870, 0.080385021865368, -0.046282213181257, 0.359839320182800, -0.171588420867920, -0.606520354747772, 0.158197358250618, -0.160189598798752, 0.014848088845611, 0.372966468334198, 0.081026837229729, 0.190414324402809, 0.300810664892197, -0.389920175075531, 1.051959991455078, -0.088206447660923, 0.681703567504883, -0.110873930156231, 0.286357998847961, -0.042094726115465, 0.095803327858448, 0.144692540168762, 0.364851802587509, -0.425783604383469, -0.137510374188423, -0.332457900047302, 0.138508453965187, -0.131206586956978, 0.233948692679405, -0.076349042356014, -0.270429909229279, -0.691466510295868, 0.214340820908546, -0.277764886617661 }, { -0.800856053829193, -0.098992682993412, 0.432707458734512, -1.041749238967896, 0.433378368616104, -0.310673326253891, -1.453749299049377, 0.519628167152405, -0.577808439731598, 0.630967319011688, 0.714821398258209, 0.858113110065460, -0.315414875745773, -0.410556733608246, 0.547706365585327, 0.817693531513214, -0.048126801848412, -0.131758198142052, 0.320191264152527, -1.135413885116577, -0.035699356347322, -0.381974965333939, 0.644920051097870, 0.139495298266411, 0.353110134601593, -0.496915668249130, 1.056995034217834, 0.812122821807861, -0.084534421563148, 0.018965316936374, 0.069390185177326, -0.551128804683685, -0.611366331577301, 0.008730901405215, 0.229087829589844, 1.848785281181335, -0.487922996282578, -0.755667269229889, -0.330330431461334, 0.408259332180023, -0.724034667015076, 0.493595629930496, -0.034481309354305, -0.478440672159195, 1.777121424674988, -0.315641641616821, 0.471950620412827, 0.662785053253174, -1.237146735191345, 0.148449033498764, -0.556672394275665, -0.062459252774715, 0.773782312870026, -0.086991570889950, 0.621955573558807, 0.608938753604889 }, { 0.163829043507576, -0.071510165929794, -0.652781784534454, 0.342234075069427, 0.525732636451721, 0.399618864059448, 1.437961220741272, -0.238478034734726, -0.083992928266525, -0.122172422707081, -0.381150007247925, 0.006497238297015, -0.311695963144302, -0.105870485305786, -0.858687102794647, 0.867287814617157, -0.021275421604514, 0.208718061447144, -0.180043935775757, 0.252833068370819, -0.161817565560341, 0.021523848176003, 0.247402220964432, 0.901697099208832, -0.183176770806313, -0.223401576280594, -0.732552349567413, -0.380970776081085, -0.097294144332409, -0.032896019518375, 0.506229698657990, -0.437941968441010, 0.088638015091419, 0.121781580150127, -0.224727481603622, -0.656488835811615, 0.309640944004059, 0.197331070899963, 0.118192732334137, -0.126097127795219, 0.263785988092422, -0.085795909166336, 0.236012548208237, 0.010013935156167, -0.313698858022690, 0.782800436019897, -0.152729079127312, 0.017734490334988, 0.158609017729759, -0.088662795722485, 0.236857026815414, -0.042065475136042, 0.146661818027496, 0.438005387783051, -0.137980803847313, -0.152342021465302 }, { 0.235974088311195, -0.022080201655626, 0.315614312887192, -0.181575194001198, -0.234066575765610, -0.044690355658531, -0.228075474500656, 0.024233303964138, 0.405805468559265, 0.034773163497448, 0.040252439677715, -0.019125644117594, 0.050072509795427, 0.033245842903852, 0.045232530683279, -0.049901846796274, -0.009124554693699, -0.403201401233673, 0.109493911266327, -0.073730677366257, 0.002980031538755, 0.057339154183865, -0.195754230022430, 0.216074243187904, 0.135907933115959, 0.369618386030197, 0.112900532782078, 0.144892066717148, 0.243756294250488, -0.004310428164899, -0.039301484823227, -0.162085443735123, -0.000098990647530, -0.115434035658836, 0.141208082437515, 0.006977783516049, -0.116817101836205, 0.021116137504578, -0.033628083765507, 0.032162755727768, 0.233656316995621, 0.462887227535248, 0.081683516502380, 0.008637705817819, 0.058006629347801, 0.094866000115871, 0.064081117510796, -0.353642463684082, 0.090671665966511, 0.107493847608566, 0.050675213336945, -0.010258272290230, -0.013655963353813, 0.080282770097256, -0.131085842847824, 0.254032373428345 }, { -0.024399325251579, -0.093122363090515, -0.049938462674618, -0.029755400493741, -0.014115286059678, -0.154216155409813, 0.027396582067013, 0.085193790495396, 0.043518532067537, -0.049159709364176, 0.039593830704689, 0.064432069659233, -0.185544714331627, -0.052161183208227, -0.030009239912033, 0.068310827016830, 0.015984274446964, 0.030814405530691, 0.514805912971497, 0.031353425234556, -0.066358543932438, -0.030251568183303, -0.054591327905655, 0.108677752315998, 0.066206693649292, 0.076883591711521, -0.046913057565689, -0.352452456951141, 0.074851043522358, 0.112896837294102, 0.032749112695456, -0.252672076225281, 0.007869047112763, 0.086136072874069, -0.043126393109560, -0.046286579221487, -0.239233270287514, -0.021689299494028, -0.005553919356316, -0.019189149141312, -0.098358847200871, -0.011106225661933, 0.033470563590527, 0.125469282269478, -0.012961354106665, -0.017466474324465, -0.041324350982904, -0.082422144711018, 0.086001500487328, 0.201428145170212, -0.096312493085861, -0.072819322347641, -0.099762819707394, -0.202773109078407, -0.098875224590302, -0.077470079064369 }, { -0.185748115181923, -0.045180022716522, -0.014273457229137, 1.264380693435669, 0.103613749146461, 0.020641982555389, -0.057057034224272, -0.042327851057053, -0.038505431264639, 0.081936955451965, -0.311546087265015, -0.054917704313993, -0.131955221295357, 0.040929663926363, 0.016428649425507, 0.045581247657537, -0.027845401316881, -0.015197526663542, -0.407559543848038, -0.011065978556871, 0.152648106217384, -0.049412447959185, 0.177839562296867, -0.179749280214310, 0.322346538305283, -0.123076185584068, 0.044415462762117, 0.335383981466293, -0.474756628274918, 0.007065332029015, -0.203966245055199, -0.349999517202377, 0.010986375622451, -0.419564664363861, 0.015318368561566, 0.129664376378059, 0.052180230617523, 0.032497454434633, -0.019598435610533, 0.040710058063269, 0.062484182417393, 0.038454666733742, -0.017224544659257, 0.236697211861610, -0.047928709536791, 0.284146159887314, 0.043896064162254, 0.114576332271099, -0.097561910748482, -0.312367320060730, 0.284237504005432, 0.125038102269173, 0.632973134517670, 0.118971526622772, -0.503976821899414, 0.106826379895210 }, { 0.294498771429062, -0.086521387100220, -0.044945441186428, -0.318059772253036, -0.229472026228905, -0.250137120485306, 0.033887483179569, -0.019330315291882, -0.200981259346008, -0.310937166213989, 0.021364355459809, -0.223011881113052, -0.375684499740601, 0.184025973081589, -0.099851496517658, -0.033381767570972, -0.014396413229406, -0.004960100166500, 0.059014692902565, 0.145644456148148, -0.072205282747746, 0.210859075188637, -0.105440028011799, 0.056094888597727, 0.158555284142494, 0.360797822475433, -0.430283188819885, -0.190987572073936, 0.484265118837357, -0.050316646695137, 0.198857843875885, -0.340343743562698, 1.349647045135498, 0.034985683858395, -0.149187847971916, -0.506264150142670, 0.085854455828667, -0.350749760866165, -0.008353165350854, -0.190715223550797, -0.307557731866837, 0.249049946665764, 0.101395957171917, 0.055731441825628, -0.038908697664738, -0.338597625494003, -1.532779216766357, 0.080281548202038, 0.267140179872513, 0.240038529038429, 0.019879743456841, -0.994108319282532, -0.370947659015656, 0.596161782741547, -0.177924126386642, -0.300765126943588 }, { 0.136861458420753, 0.315560430288315, 0.029205547645688, -0.089855521917343, 0.065533854067326, 0.476846635341644, 0.243485361337662, -0.012165156193078, 0.519279241561890, 0.079329848289490, -0.142386659979820, 0.097137555480003, 0.717301249504089, 0.136775046586990, -0.004099064040929, 0.050218962132931, -0.020072672516108, 0.045513998717070, 0.017705060541630, -0.040518701076508, 0.050053387880325, -0.044196367263794, -0.190962493419647, 0.055229850113392, -0.206850618124008, -0.431319326162338, 0.413072019815445, 0.032389912754297, -0.027017133310437, -0.083480007946491, -0.117117688059807, 0.479134500026703, 0.037334397435188, -0.068789616227150, 0.112541198730469, -0.188214600086212, -0.053444482386112, 0.079703047871590, 0.110641553997993, 0.055767845362425, 0.230185315012932, 0.028668548911810, 0.058708339929581, 0.075548663735390, -0.096593365073204, -0.533911347389221, 0.118585094809532, -0.535681605339050, 0.220797553658485, -0.292508900165558, -0.038876444101334, 0.107038646936417, -0.041251610964537, 0.237321719527245, 0.666182458400726, 0.285427629947662 }, { -0.043352302163839, -0.088772229850292, -0.049179621040821, 0.013355021364987, -0.020393906161189, 0.066625878214836, -0.158208191394806, 0.041106037795544, -0.209536373615265, -0.038650825619698, 0.149320393800735, -0.057399947196245, 0.037157896906137, 0.005073866806924, 0.002802323782817, -0.060572691261768, 0.008846713230014, -0.217048913240433, -0.058463845402002, 0.017519691959023, 0.589615345001221, -0.052429344505072, 0.011946416459978, 0.014772848226130, -0.076310873031616, 0.277829915285110, -0.041262522339821, -0.023855159059167, -0.009242572821677, 0.026942731812596, -0.013542043045163, 0.130755990743637, -0.001058540656231, -0.052280616015196, -0.052499741315842, -0.119953386485577, -0.013281166553497, 0.004396613687277, -0.024562908336520, -0.033576533198357, -0.081449210643768, -0.055624265223742, -0.091872476041317, -0.013510834425688, 0.123407915234566, 0.266350954771042, -0.061935387551785, 0.199668154120445, -0.011714099906385, 0.127114042639732, 0.092370219528675, -0.063306532800198, 0.028229841962457, -0.145112439990044, 0.085369385778904, -0.297295302152634 }, { 0.085882581770420, 0.052769750356674, 0.014085586182773, -0.197767645120621, -0.002172247506678, 0.088555186986923, 0.016525838524103, -0.053358733654022, 0.050867386162281, -0.008642318658531, 0.170686960220337, -0.084356926381588, 0.015419530682266, 0.029560791328549, 0.004846956580877, -0.061303842812777, -0.003526804503053, -0.114062905311584, -0.046821378171444, -0.024097781628370, 0.015246168710291, -0.009502918459475, 0.044794078916311, -0.025068759918213, -0.011115914210677, -0.019841380417347, 0.028275929391384, -0.002410992281511, 0.207481756806374, -0.024371679872274, -0.027641633525491, -0.010352866724133, 0.018315404653549, -0.018332367762923, 0.031518023461103, 0.001563643105328, 0.039891425520182, -0.002526775002480, 0.067664690315723, 0.005137166008353, 0.093734689056873, 0.094845831394196, -0.009923603385687, -0.031084388494492, -0.024264365434647, 0.016313474625349, 0.041826959699392, -0.056574717164040, 0.002788255456835, -0.129675760865211, -0.033126171678305, 0.057258538901806, -0.070528313517570, -0.017396520823240, 0.058240529149771, 0.114198997616768 }, { -0.113914810121059, -0.026425804942846, 0.031289476901293, -0.082633443176746, 0.010615292936563, 0.132056728005409, -0.009246014058590, -0.093954846262932, -0.072687089443207, 0.005343956407160, 0.098863810300827, 0.092644818127155, 0.192053124308586, 0.147992730140686, -0.001521614962257, 0.066633112728596, 0.015085614286363, 0.091317318379879, 0.045846823602915, 0.026041952893138, -0.006602696608752, 0.087108626961708, -0.059542514383793, -0.028253979980946, -0.212083041667938, 0.030934188514948, -0.071336202323437, 0.052431873977184, -0.054731935262680, -0.010554069653153, -0.012382735498250, 0.305447012186050, -0.116244718432426, 0.048324748873711, -0.069123528897762, -0.083198741078377, 0.031362693756819, 0.008055713027716, -0.048136726021767, -0.011237590573728, -0.046294543892145, -0.114297740161419, 0.027461249381304, 0.086543992161751, 0.053072497248650, -0.081747092306614, 0.015217082574964, 0.069070927798748, 0.060212850570679, 0.152463465929031, -0.041021086275578, -0.204841747879982, -0.123967275023460, 0.227092757821083, 0.207376495003700, -0.100340366363525 }, { 0.026394030079246, 0.260860949754715, 0.028163675218821, 0.199798449873924, 0.064197257161140, 0.106148503720760, -0.025014577433467, 0.214390799403191, 0.057712823152542, 0.129157304763794, -0.185670405626297, 0.079719893634319, 0.132925063371658, -0.249480977654457, -0.000540873734280, -0.099250294268131, -0.003032679902390, -0.143090561032295, -0.033945355564356, -0.046281624585390, -0.240479439496994, -0.137018889188766, 0.027240436524153, 0.004739819560200, -0.682056367397308, 0.071893051266670, 0.104811765253544, 0.106384471058846, -0.185346096754074, -0.048443034291267, 0.151017725467682, 0.337788879871368, -0.901313126087189, 0.090599335730076, 0.097285002470016, 0.157866641879082, -0.084075406193733, 0.296624600887299, 0.005101936403662, 0.071567274630070, 0.314117699861526, 0.120039992034435, 0.024910690262914, 0.155505299568176, -0.004035669844598, 0.291056632995605, 1.211416125297546, -0.023418378084898, 0.028668422251940, -0.063237816095352, -0.079868659377098, 1.529896020889282, 0.164080038666725, 0.019301548600197, -0.390745401382446, 0.208669185638428 }, { -0.084065884351730, 0.015741504728794, -0.079132519662380, -0.024131659418344, 0.112491518259048, 0.024246977642179, -0.073676824569702, -0.056107416749001, -0.046680204570293, -0.050489429384470, 0.183391600847244, -0.024970436468720, 0.015463140793145, 0.004290129989386, 0.041408028453588, 0.103316299617290, 0.009021614678204, 0.019318094477057, 0.025242542847991, 0.012439178302884, 0.329020321369171, 0.009685899131000, 0.012923718430102, -0.046439900994301, 0.053197208791971, -0.148669004440308, -0.080698035657406, 0.001008337247185, 0.082652300596237, 0.092767134308815, -0.033151742070913, -0.118983261287212, -0.093803912401199, -0.053388342261314, -0.138883605599403, -0.051818605512381, 0.070952691137791, 0.049878410995007, 0.061199679970741, -0.013902602717280, -0.113119050860405, -0.064322829246521, 0.044940102845430, 0.145346418023109, 0.067756004631519, 0.016154721379280, 0.040149312466383, 0.033296111971140, 0.175086155533791, 0.026867769658566, 0.038745626807213, -0.133116886019707, -0.047406386584044, -0.217777907848358, -0.253290921449661, -0.179427355527878 }, { 0.045009024441242, 0.041325427591801, 0.052775651216507, 0.031672790646553, -0.036088757216930, -0.177888751029968, 0.092702731490135, -0.041619367897511, 0.006468439474702, 0.017116460949183, -0.047103736549616, 0.042160250246525, -0.094972245395184, 0.010512929409742, 0.004814564250410, 0.101655684411526, -0.004552364815027, 0.072476461529732, 0.007485715672374, -0.011735441163182, -0.382228612899780, 0.025254182517529, 0.003024446545169, -0.018215129151940, 0.064724251627922, -0.038303356617689, -0.060074068605900, 0.006623564753681, -0.045489229261875, -0.030278908088803, -0.036222897469997, 0.047203928232193, 0.014554148539901, 0.065929479897022, 0.057024564594030, -0.002285272348672, 0.006917296908796, -0.001742720487528, -0.072830624878407, 0.007881638593972, 0.026635836809874, -0.020665185526013, 0.009307041764259, -0.053373228758574, -0.047758743166924, -0.148794725537300, 0.012984235771000, 0.029552279040217, 0.080238930881023, 0.064953677356243, -0.067204967141151, 0.031270332634449, -0.007481588982046, -0.066794611513615, 0.075683929026127, 0.076895713806152 } }
    };
///layer 2
static double weights_layer2[56][1][12] = {
    { { -0.001944687450305, -0.332231968641281, 0.306799709796906, -0.062140531837940, 0.044120255857706, -0.607699871063232, -0.392820805311203, 0.517814993858337, -0.306320130825043, -1.120169401168823, 0.108532480895519, -0.146240964531898} },
     { { -0.097906984388828, -0.057438611984253, 0.244038000702858, 0.083302162587643, 0.370276510715485, 0.068405449390411, -0.048571586608887, -0.146198973059654, 0.489132791757584, -0.226882264018059, 0.119127891957760, 0.454673171043396} },
     { { -0.053866565227509, 0.084437541663647, -0.531556963920593, -0.119913399219513, -0.024023558944464, -0.292695581912994, 0.483766615390778, 0.106993414461613, 0.022894006222486, -0.569705843925476, 0.026843823492527, -0.199601858854294} },
     { { -0.161149442195892, -0.086598411202431, -0.489277213811874, 0.000592598342337, -0.082431107759476, 0.936893880367279, 0.530518531799316, 0.111215069890022, -0.093599647283554, 0.855541706085205, 1.275459527969360, 0.144667848944664} },
     { { 0.565113544464111, 0.168334230780602, -0.284443736076355, -0.043847467750311, 0.101382307708263, 0.117657057940960, 0.680731594562531, 0.139362424612045, 0.063380926847458, -0.236654147505760, 0.188289046287537, 0.382844328880310} },
     { { -0.731706678867340, -0.279569208621979, 0.135116741061211, 0.131140574812889, 0.993543982505798, -0.080448657274246, 0.467321068048477, 0.587750554084778, 0.141856536269188, 0.114087186753750, 0.027932213619351, 0.145367741584778} },
     { { -0.016879262402654, 0.311769157648087, -0.276295274496078, -0.230197697877884, 0.142068535089493, -0.016327273100615, -0.094472259283066, -1.739503383636475, -0.333691954612732, 0.480747282505035, 0.046855367720127, -0.085418798029423} },
     { { -0.996627330780029, -0.117566414177418, 0.213658854365349, -0.015961397439241, 0.563938319683075, 0.288228482007980, 0.356179475784302, -0.001724280067720, 0.092337280511856, -0.176738291978836, 0.192363083362579, 0.162558630108833} },
     { { 0.320254594087601, -0.142087891697884, 0.354687005281448, 0.112366370856762, -0.000668396591209, 0.517390012741089, 0.033550489693880, -0.383907496929169, 0.139909699559212, 0.009096098132432, -0.620964884757996, -0.456121265888214} },
     { { -0.201525419950485, 0.376924425363541, 0.321196645498276, -0.280025035142899, -0.680793642997742, 0.137278258800507, 0.015902796760201, 0.078623503446579, -0.040321715176105, -0.286623686552048, 0.069406591355801, 0.231500178575516} },
     { { -0.561570107936859, 0.219479754567146, -0.055895261466503, 0.027606863528490, -0.133359447121620, -0.175697773694992, 0.539168655872345, -0.766680479049683, -0.027217248454690, -0.264631003141403, -0.696944952011108, -0.598932325839996} },
     { { -0.255822420120239, 0.685500621795654, -0.126703888177872, -0.512323379516602, -0.403229594230652, 0.210520774126053, -0.494558542966843, 0.019173538312316, 0.052485160529613, 0.044320613145828, 0.337221652269363, -0.156447738409042} },
     { { -0.238281413912773, 0.004256835207343, -0.229828417301178, -0.062405604869127, -0.264723867177963, -0.194860622286797, -0.287798762321472, -0.338510423898697, -0.149684429168701, -0.197804600000381, -0.569238543510437, -0.143835365772247} },
     { { 0.126588210463524, -0.228259071707726, -0.599045097827911, 0.111118599772453, 0.037071630358696, 0.171135574579239, -0.546306848526001, -0.142050519585609, 0.018642719835043, -0.356947243213654, -0.166343033313751, -0.215115487575531} },
     { { 0.475077867507935, -0.091302596032619, -0.129601046442986, 0.130312487483025, -0.112005278468132, 0.573063552379608, -0.157512500882149, -0.343712300062180, 0.446077853441238, -0.286233663558960, -0.044463649392128, -0.167314246296883} },
     { { -0.013536791317165, 0.222852602601051, -0.320072054862976, 0.262093335390091, -0.170007020235062, 0.151383727788925, -0.096869736909866, 1.109326601028442, 0.426142156124115, 0.867484211921692, 0.076131224632263, -0.411072611808777} },
     { { 0.095351442694664, 0.357701659202576, 0.305629312992096, -0.245232149958611, -0.066413648426533, 0.474434584379196, -0.324408888816833, 0.165202841162682, 0.176632925868034, -0.718107461929321, -0.177480980753899, 0.040116321295500} },
     { { 0.276830494403839, 0.345208644866943, -0.239619076251984, -0.188376113772392, 0.329666703939438, -0.200448632240295, 0.404199421405792, -0.456046074628830, -0.336926430463791, -0.158074900507927, 0.494473993778229, -0.198524489998817} },
     { { -0.207316726446152, -0.003282387042418, -0.111068315804005, -0.000639064644929, 0.116697713732719, 0.470083206892014, -0.089906662702560, 0.053342875093222, 0.057586356997490, -0.506388127803802, 0.582892239093781, 0.565206348896027} },
     { { 0.651832342147827, -0.005235441960394, -0.547510802745819, 0.014734509401023, -0.344434440135956, -0.390992045402527, -0.205932036042213, -0.239675119519234, 1.362593173980713, -0.278865635395050, 0.002429659478366, -0.346652090549469} },
     { { 0.005635293200612, 0.088715098798275, -0.001671249512583, -0.071288213133812, -0.573426723480225, -0.448107033967972, -0.282489180564880, -0.262627512216568, -0.291693955659866, 0.138305976986885, 0.035108689218760, 0.122361928224564} },
     { { 0.248333096504211, 0.202747508883476, -0.011761637404561, -0.101088270545006, -0.654143333435059, -0.196771144866943, 0.058009613305330, 0.297585368156433, -0.004609235562384, -0.560234427452087, 0.080869674682617, 0.440284907817841} },
     { { -0.177959635853767, 0.017907259985805, 0.123299881815910, -0.029641671106219, -0.267599612474442, -0.030405269935727, 0.623951435089111, 0.549448668956757, 0.022076481953263, 0.079127825796604, 0.547546386718750, 0.053885895758867} },
     { { 0.471121519804001, -0.084513932466507, 0.252997756004333, 0.145017117261887, -0.142713218927383, 0.105019092559814, 0.096076801419258, 0.162901014089584, 0.180825814604759, -0.024463932961226, -0.842938423156738, 0.010364543646574} },
     { { -0.385579407215118, -0.090038940310478, 0.307162642478943, 0.051018998026848, 0.138879656791687, -0.213158965110779, -0.188039958477020, 0.179921075701714, 0.063874557614326, -0.017502890899777, 0.258301258087158, 0.022949196398258} },
     { { -0.273581981658936, 0.073490716516972, 0.118887133896351, -0.066882282495499, 0.773962557315826, 0.261067956686020, -0.489442229270935, -0.587851643562317, -0.020650709047914, 0.071704864501953, -0.368532001972198, -0.193459317088127} },
     { { -0.672460019588470, 0.509468972682953, 0.420337229967117, 0.113064415752888, 0.412468254566193, 0.818952023983002, -0.490551978349686, -0.760220766067505, 0.040749046951532, 0.488657742738724, -0.323093205690384, 0.065218746662140} },
     { { 0.128842666745186, -0.010912599042058, -0.041551329195499, 0.027265977114439, -0.168294265866280, 0.522767186164856, -0.272794723510742, 0.299712389707565, 0.073567479848862, 0.284411460161209, -0.094636268913746, 0.333501547574997} },
     { { -0.049728307873011, 0.226590678095818, 0.015513302758336, -0.254996716976166, -0.498649597167969, -0.377681583166122, -0.482252299785614, 0.153201445937157, 0.148463144898415, 0.055903829634190, -0.922693371772766, -0.265432506799698} },
     { { 0.013956964015961, -0.149441465735435, -0.196808740496635, 0.048086695373058, -0.409859687089920, 0.535624921321869, 0.263844519853592, 0.147342771291733, 0.207388147711754, 0.149016737937927, 0.147191002964973, 0.382640391588211} },
     { { 0.114691495895386, 0.233115300536156, -0.025667121633887, 0.214447587728500, -0.171361863613129, -0.879987895488739, 0.220393940806389, 0.269235730171204, -0.020753733813763, -0.397438377141953, 0.213375985622406, -0.150425553321838} },
     { { 0.694502711296082, 0.272438079118729, 0.048872061073780, -0.079037196934223, 0.060992009937763, 0.171859025955200, 0.321029275655746, -0.128133371472359, -0.063265040516853, 0.480458855628967, 0.041725780814886, 0.275766313076019} },
     { { -0.236402034759521, -0.240456804633141, -0.552670955657959, 0.040194969624281, -0.366443097591400, 0.031979139894247, -0.053032342344522, 0.001552465721034, -0.326913177967072, 0.031759589910507, 0.130129694938660, -0.378391683101654} },
     { { 0.357218176126480, 0.461569577455521, 0.265590876340866, -0.238418370485306, 0.083656169474125, 0.176599204540253, 0.151787653565407, -0.454780369997025, -0.018416954204440, 0.443448007106781, -0.135268822312355, 0.131758630275726} },
     { { -0.437553346157074, -0.114842161536217, 0.249336302280426, 0.074418976902962, -0.142790541052818, 0.312661916017532, -0.592315554618835, -0.133688494563103, 0.149981558322906, 0.154752865433693, 0.394521057605743, 0.384548246860504} },
     { { 0.858193993568420, 0.138194650411606, -0.123947925865650, 0.070424593985081, 0.677265226840973, 0.587909877300262, 0.100524112582207, 0.147429600358009, 0.406378418207169, -0.087649218738079, -0.091797679662704, 0.176767706871033} },
     { { 0.003962296061218, -0.085022121667862, -0.029392302036285, 0.038784936070442, -0.646163642406464, 0.230069831013680, -0.626971483230591, 0.176181733608246, 0.031734853982925, -0.326457858085632, 0.798202574253082, 0.307778567075729} },
     { { -0.061323769390583, -0.220871090888977, -0.032473910599947, 0.122467815876007, 0.127247110009193, 0.129317924380302, -0.406314641237259, 0.330511152744293, 0.061031535267830, 0.153323307633400, -0.538559317588806, -0.150756970047951} },
     { { -0.343475580215454, -0.243826732039452, 0.319491803646088, 0.050519473850727, -0.354193657636642, 0.055544979870319, -0.109556622803211, 0.216661140322685, 0.326921671628952, -0.258867114782333, 0.052361376583576, 1.028011202812195} },
     { { -0.162477865815163, -0.507547438144684, -0.485970526933670, 0.350153744220734, 0.528967857360840, -0.491177976131439, 0.143888995051384, -0.056346423923969, -0.014168439432979, 0.197452500462532, -0.002460020827129, 0.002558321459219} },
     { { -0.099618598818779, -0.052004918456078, 0.990425407886505, -0.151766717433929, -0.265729099512100, -0.089046888053417, 0.433639228343964, 0.722869575023651, -0.025001443922520, -0.203296989202499, -0.078378066420555, 0.417800039052963} },
     { { -0.003387294709682, -0.376799792051315, -0.100935392081738, 0.451687902212143, -0.126303255558014, 0.273880660533905, -0.775829792022705, -0.347213447093964, 0.324009090662003, 0.064127147197723, 0.193396389484406, -0.473882675170898} },
     { { -0.466122537851334, -0.115997076034546, 0.267597794532776, 0.031189575791359, -0.137679561972618, -0.208893656730652, -0.128813043236732, 0.001173037686385, -0.099226973950863, 0.463599205017090, -0.023483846336603, 0.018649689853191} },
     { { 0.646494328975677, -0.147699326276779, 0.114015124738216, 0.037530962377787, 0.194433018565178, -0.257111132144928, -0.090735472738743, 0.048029169440269, -0.776435375213623, -0.208340972661972, 0.300446838140488, 0.320407629013062} },
     { { -0.593855619430542, 0.509426176548004, 0.134724631905556, 0.697595119476318, -0.765396296977997, 0.535368204116821, -0.017751222476363, -0.732644438743591, 0.067755326628685, 0.102376997470856, -0.386819005012512, 0.552509009838104} },
     { { -0.429551005363464, 0.025585884228349, 0.428062766790390, -0.018230048939586, 0.298748016357422, -0.034777261316776, 0.804044365882874, 0.203658208250999, -0.069280199706554, 0.066505543887615, -0.286762535572052, 0.653072059154510} },
     { { 0.179334893822670, 0.197133243083954, 0.659965693950653, -0.014108480885625, -0.100436851382256, -0.276169449090958, 0.060559868812561, 0.065123066306114, 0.252738982439041, 0.086920641362667, 0.181210219860077, 0.575863897800446} },
     { { -0.177816942334175, 0.269940584897995, -0.325451880693436, -0.176448792219162, -0.569831788539886, -0.795982182025909, -0.184056684374809, -0.102593630552292, -0.384771466255188, -0.021098582074046, 0.145177200436592, 0.656817436218262} },
     { { -0.634284794330597, -0.059953618794680, 0.049315996468067, -0.059955853968859, -0.331702470779419, -0.425045639276505, 0.011783595196903, -0.068168424069881, -0.288788706064224, -0.025745263323188, 0.101380459964275, 0.034549057483673} },
     { { 0.035038720816374, 0.460416257381439, -0.736638307571411, -0.294469624757767, -0.552750647068024, -0.705441892147064, 0.555874288082123, 0.246925622224808, -0.311732679605484, 0.214356765151024, 0.046818438917398, -0.071438513696194} },
     { { -0.297755479812622, -0.371635288000107, 0.022464038804173, -0.264150261878967, -0.221111550927162, -0.065905034542084, 0.443520575761795, 0.113743096590042, -0.264059871435165, -0.314571619033813, 0.332972168922424, 0.221573784947395} },
     { { 0.355587244033813, -0.012370050884783, -0.617060959339142, -0.020356783643365, 0.139405906200409, 0.526796102523804, 0.175027444958687, -0.071267791092396, 0.017027616500854, -0.188176289200783, 0.117408268153667, -0.318059504032135} },
     { { -0.439293920993805, 0.424615949392319, -0.207096919417381, 0.041050944477320, -0.729121387004852, 0.482571452856064, 0.349585294723511, -0.397034585475922, 0.071315787732601, 0.477922469377518, 0.830225944519043, -0.279147952795029} },
     { { -0.000879206054378, 0.083823181688786, -0.033835154026747, -0.047968499362469, -0.537233710289001, -0.533783674240112, -0.239050641655922, -0.173591375350952, -0.250438362360001, -0.552215158939362, -0.483776420354843, 0.241193160414696} },
     { { -0.276911914348602, 0.060004841536283, 0.462998062372208, 0.002266809809953, 0.563220620155334, -0.026395423337817, 0.444466292858124, 0.078312948346138, 0.031685240566730, 0.182642087340355, -0.385502099990845, 0.556148648262024} },
     { { -0.181862264871597, 0.079424634575844, 0.560986578464508, 0.396592319011688, 0.573748469352722, 0.334763586521149, 0.049466032534838, -0.007409703917801, 0.118578240275383, 0.227934062480927, -0.094441100955009, -0.601265966892242} }
};
///layer 3
static double weights_layer3[12][9][12] = {
     { { -0.246715039014816, -0.312275499105453, -0.239063650369644, -0.194257065653801, -0.111133292317390, -0.184735938906670, 0.196858584880829, -0.138664856553078, 0.400789976119995, -0.159609794616699, 0.090671680867672, 0.209135338664055}, { -0.304508179426193, -0.150794893503189, -0.507802486419678, 0.071204535663128, -0.220231696963310, 0.142002955079079, 0.045444700866938, 0.041123613715172, -0.079119741916656, 0.101741775870323, 0.161738499999046, -0.194601655006409}, { -0.303267806768417, -0.063353560864925, -0.030373010784388, -0.170851200819016, -0.108115874230862, -0.114825613796711, -0.166095212101936, -0.036848172545433, 0.238783836364746, -0.059289265424013, 0.065396070480347, 0.269583761692047}, { -0.441349714994431, 0.188389137387276, -0.177995726466179, -0.357095450162888, -0.219200447201729, -0.264532715082169, -0.032348394393921, -0.315475463867188, 0.350709140300751, 0.016823949292302, 0.077359311282635, 0.104265756905079}, { -0.341215491294861, 0.096400141716003, -0.164678797125816, 0.114045277237892, 0.077407114207745, 0.218174815177917, 0.260655820369720, -0.491883784532547, -0.181840956211090, 0.029500337317586, -0.286139607429504, -0.570254445075989}, { -0.216088980436325, 0.061798881739378, -0.140434518456459, 0.050906427204609, 0.221041589975357, -0.092885829508305, -0.091527484357357, -0.177962750196457, 0.521767735481262, -0.118666961789131, -0.062403868883848, -0.032694220542908}, { -0.131547823548317, 0.238378211855888, 0.029969353228807, -0.116238377988338, 0.080919183790684, -0.008292403072119, 0.146670863032341, -0.103108853101730, 0.075933113694191, 0.138563260436058, -0.032652474939823, -0.014107837341726}, { 0.122578881680965, -0.055115152150393, 0.017144236713648, 0.146491900086403, 0.089205026626587, -0.097182229161263, 0.382179856300354, 0.280125349760056, 0.352686196565628, -0.090224035084248, -0.081066355109215, -0.425874084234238}, { -0.080784998834133, -0.025549106299877, 0.213469743728638, -0.163848340511322, -0.011314149945974, -0.196360573172569, 0.119520619511604, -0.173305243253708, -0.046833876520395, 0.043402131646872, -0.116550892591476, 0.062236171215773} },
     { { -0.120424926280975, 0.261966317892075, 0.006416125688702, -0.192175656557083, -0.046858508139849, 0.000207940800465, 0.055720422416925, -0.007720986381173, -0.060905456542969, 0.075581282377243, 0.004523837473243, -0.020471936091781}, { -0.075173683464527, -0.151955112814903, 0.147988259792328, 0.169799149036407, 0.018393324688077, -0.089890576899052, 0.044854603707790, 0.317515492439270, 0.005348515231162, -0.132071867585182, -0.002613021060824, -0.092217095196247}, { -0.073514677584171, -0.073777981102467, 0.127903059124947, -0.098035477101803, -0.019641447812319, -0.021923622116446, 0.041455447673798, 0.033499173820019, 0.227077782154083, -0.130441695451736, -0.004074195865542, 0.041241686791182}, { -0.135999158024788, -0.557905137538910, 0.170724734663963, -0.332918405532837, 0.288732707500458, 0.051126830279827, -0.025704858824611, -0.135238587856293, 0.346423119306564, 0.114488087594509, -0.083598613739014, 0.053213372826576}, { -0.416770666837692, 0.135204240679741, -0.170972123742104, 0.907690107822418, 0.980425655841827, -0.234429702162743, -0.138137623667717, 0.358573108911514, 0.021232614293694, -0.102266930043697, 0.494024097919464, 0.613191068172455}, { -0.142503619194031, -0.079869672656059, 0.291896939277649, -0.291222155094147, -0.217447593808174, 0.358031719923019, 0.094873294234276, 0.115808054804802, 0.439361125230789, -0.012631418183446, 0.042905550450087, -0.027246264740825}, { 0.096682131290436, -0.270489275455475, 0.403150767087936, -0.310521423816681, -0.218763872981071, -0.046059370040894, 0.156380385160446, 0.284680664539337, 0.059275832027197, 0.026787959039211, -0.052443496882915, -0.109312608838081}, { -0.131887644529343, -0.059473045170307, -0.293418496847153, 0.216640189290047, -0.027087701484561, 0.110140949487686, 0.183467894792557, -0.001537633012049, 0.072497203946114, -0.102678842842579, 0.111176796257496, -0.153233408927917}, { -0.262401372194290, -0.079438820481300, 0.134808346629143, -0.030226822942495, 0.001317509333603, 0.123439535498619, 0.128146231174469, 0.076826140284538, -0.033449862152338, 0.096720136702061, -0.042234279215336, 0.011903109960258} },
     { { 0.045491423457861, -0.392964154481888, -0.013134226202965, -0.079742781817913, -0.020345339551568, 0.118359848856926, -0.145314812660217, -0.000975611386821, -0.063506782054901, -0.073765195906162, 0.018135260790586, 0.106132768094540}, { 0.192483872175217, -0.157980218529701, -0.115175358951092, -0.079629540443420, -0.030497804284096, 0.335322022438049, 0.228272601962090, 0.109590820968151, -0.334663212299347, 0.117901958525181, 0.008147760294378, -0.154037669301033}, { 0.074533514678478, -0.090427443385124, -0.057009965181351, 0.004579092841595, -0.033710155636072, 0.029012415558100, 0.002738766139373, -0.000140073068906, 0.047442335635424, -0.057849671691656, 0.018357461318374, 0.025341743603349}, { 0.060449358075857, 0.156892687082291, -0.045182436704636, -0.014516601338983, -0.134922191500664, 0.016804695129395, 0.006664673797786, -0.162159442901611, -0.054853022098541, -0.056970953941345, -0.035122010856867, -0.037810362875462}, { 0.286576241254807, 0.061580207198858, 0.380070537328720, -0.006630986928940, 0.140797019004822, 0.265331625938416, -0.140881940722466, -0.553018987178802, -0.074426785111427, -0.068585097789764, -0.093258634209633, 0.504917860031128}, { 0.405437916517258, -0.008964666165411, 0.008303686976433, 0.062048792839050, 0.158059298992157, 0.172960072755814, 0.049281585961580, 0.175394982099533, 0.012196066789329, -0.043951783329248, -0.077686041593552, -0.071558795869350}, { 0.191807493567467, 0.250098019838333, -0.021291036158800, -0.023151759058237, 0.050909694284201, 0.080264233052731, -0.106380268931389, -0.189715296030045, 0.033317454159260, 0.074475966393948, -0.006726981140673, -0.082273758947849}, { 0.468974888324738, -0.361344724893570, -0.033926267176867, 0.096281222999096, 0.130215227603912, 0.392916977405548, 0.084364838898182, 0.000933030154556, -0.312348604202271, 0.015611817128956, -0.036784332245588, -0.193254515528679}, { 0.251763641834259, -0.099030576646328, 0.005074981134385, -0.116450175642967, -0.192651584744453, -0.180651783943176, 0.031118445098400, 0.104274496436119, 0.001421381253749, 0.089198455214500, 0.009492633864284, 0.051681190729141} },
     { { -0.107708483934402, 0.124805793166161, -0.024397233501077, -0.047760982066393, 0.110144160687923, 0.031563203781843, 0.050277236849070, -0.063647538423538, 0.054853066802025, -0.004627273883671, -0.017191223800182, -0.108691565692425}, { 0.216230198740959, 0.189518973231316, -0.038836900144815, -0.267046779394150, 0.046661812812090, -0.190176740288734, -0.137890174984932, -0.103755220770836, 0.357789486646652, 0.036080628633499, 0.087396331131458, -0.013162221759558}, { -0.045751716941595, 0.177346348762512, -0.126592919230461, 0.068150237202644, -0.047220818698406, 0.012252123095095, -0.059507630765438, -0.007875620387495, -0.013392009772360, 0.032481383532286, 0.009953002445400, 0.045344632118940}, { 0.118373639881611, 0.050822768360376, -0.304568201303482, -0.081250898540020, 0.184725791215897, 0.018136462196708, -0.068512715399265, -0.111163228750229, 0.251419633626938, 0.026772825047374, 0.010152526199818, 0.140673205256462}, { 0.579964458942413, -0.155384078621864, 0.527308344841003, -0.364797145128250, 0.048221800476313, -0.032338831573725, -0.658844113349915, 0.195726290345192, -0.555272340774536, 0.316954880952835, 1.033876419067383, -0.423918545246124}, { -0.087419636547565, 0.082361251115799, -0.072192706167698, 0.243796005845070, 0.083282463252544, -0.220894381403923, 0.053087316453457, -0.009611274115741, -0.100646585226059, 0.023628786206245, 0.077819861471653, 0.028481759130955}, { 0.010507270693779, 0.248591199517250, -0.213290914893150, 0.122970499098301, 0.099335283041000, 0.100385062396526, 0.033560205250978, 0.106123670935631, -0.119376003742218, 0.203333705663681, 0.071776174008846, 0.062081243842840}, { 0.157446965575218, -0.021764822304249, 0.116911783814430, -0.123779736459255, -0.046675924211740, -0.471625864505768, 0.031765345484018, 0.288808494806290, 0.559931099414825, -0.036711201071739, -0.121575661003590, 0.259436398744583}, { 0.049857180565596, -0.051600094884634, -0.091037884354591, 0.093343205749989, 0.068414770066738, 0.140327692031860, 0.073831133544445, -0.094696797430515, -0.028265967965126, -0.084701009094715, 0.011961178854108, 0.028419561684132} },
     { { -0.179107367992401, -0.151616826653481, -0.000460926909000, -0.259363442659378, -0.043350134044886, 0.490637898445129, -0.090120717883110, -0.024052258580923, -0.469570279121399, -0.052112396806479, 0.027373434975743, -0.037871137261391}, { 0.103435225784779, -0.027209438383579, 0.140935242176056, -0.494319617748260, -0.030748421326280, 0.165993928909302, 0.017914522439241, 0.247594848275185, 0.206194370985031, -0.016784792765975, -0.091247826814651, -0.070027634501457}, { -0.034452348947525, -0.065832011401653, -0.131334722042084, 0.159916505217552, 0.096081919968128, 0.462745606899261, 0.075973227620125, 0.069628104567528, 0.093288831412792, -0.202969908714294, 0.031260050833225, -0.186369746923447}, { 0.007307774852961, -0.102073073387146, -0.094752289354801, -0.231165647506714, 0.061483070254326, 0.516916930675507, -0.157837778329849, -0.030004480853677, -0.124139070510864, -0.038222819566727, 0.086218968033791, 0.064716845750809}, { -0.571043252944946, 0.133341223001480, -0.368667215108871, -0.160023823380470, 0.054080042988062, 0.326426655054092, -0.192205369472504, -0.134887397289276, -0.884105801582336, -0.364011168479919, 0.096585094928741, 0.020971935242414}, { 0.362026810646057, 0.101318672299385, 0.203384399414063, 0.245154440402985, 0.087235257029533, 0.745844364166260, -0.069921232759953, 0.255308091640472, -0.154253646731377, 0.058523509651423, -0.120544090867043, -0.134015560150146}, { 0.028002651408315, -0.147397100925446, 0.025554988533258, -0.121749967336655, -0.007219244260341, 0.544903874397278, -0.048362899571657, 0.188706308603287, -0.211419925093651, 0.036612294614315, -0.034055493772030, -0.110360130667686}, { 0.178674831986427, -0.070090033113956, 0.090734727680683, -0.063211396336555, -0.272028088569641, 0.442805349826813, 0.125701487064362, 0.243501991033554, 0.131715685129166, -0.089663840830326, -0.046891860663891, 0.149494007229805}, { 0.177107214927673, -0.024275241419673, -0.031603120267391, 0.194367572665215, 0.044502489268780, 0.502084016799927, 0.054369799792767, 0.216017827391624, -0.110028080642223, 0.062011849135160, -0.050539273768663, -0.062284264713526} },
     { { -0.051484890282154, -0.163998857140541, -0.163316681981087, 0.082952804863453, -0.184622809290886, -0.051681488752365, -0.073113188147545, 0.042727533727884, -0.048940204083920, -0.187206730246544, 0.119738064706326, 0.228904172778130}, { -0.409105122089386, 0.027227835729718, -0.207013741135597, -0.272180914878845, -0.298179715871811, 0.207873418927193, -0.218499094247818, -0.141684815287590, -0.104487068951130, 0.074601911008358, 0.160813882946968, 0.037759691476822}, { -0.278977513313293, -0.005998882465065, -0.137785598635674, 0.076497934758663, 0.128023594617844, 0.128944709897041, -0.162251085042953, -0.153230875730515, -0.033422805368900, 0.022851636633277, 0.031203951686621, -0.063311360776424}, { -0.337335884571075, -0.006622757762671, -0.387061774730682, 0.214870139956474, -0.039500996470451, 0.030286464840174, -0.060917899012566, 0.006249769590795, -0.320689946413040, -0.088123969733715, 0.105602130293846, 0.050549224019051}, { -0.464263886213303, -0.295113295316696, 0.429923236370087, -0.561092853546143, -0.288058727979660, 0.393773466348648, -0.150919377803802, -0.017545457929373, 0.243869870901108, 0.150417536497116, -0.063566796481609, 0.185179039835930}, { -0.070757701992989, 0.012712762691081, 0.017379017546773, -0.003549704095349, 0.261302232742310, 0.213914141058922, -0.091117009520531, -0.172887027263641, -0.008974956348538, -0.134909808635712, -0.007381344214082, -0.140957400202751}, { -0.424957275390625, 0.211362019181252, -0.051780991256237, 0.070252582430840, 0.137694805860519, 0.213587403297424, -0.116765849292278, -0.201287686824799, -0.054633155465126, -0.051702857017517, 0.012446521781385, -0.095350272953510}, { -0.208197548985481, 0.070909187197685, 0.049744173884392, -0.064178854227066, 0.206545323133469, 0.318112522363663, -0.072502210736275, -0.124150514602661, -0.267802476882935, 0.153501048684120, -0.052768826484680, -0.007169807795435}, { -0.137792199850082, 0.134554684162140, 0.155424043536186, -0.051322318613529, 0.094986870884895, 0.029416985809803, -0.186205267906189, 0.043489798903465, -0.010786445811391, 0.016991166397929, -0.050802569836378, -0.038115102797747} },
     { { 0.034301985055208, 0.098794877529144, -0.256570607423782, 0.269862473011017, 0.001785542699508, -0.105456493794918, 0.041913524270058, -0.051856610924006, -0.152601197361946, -0.006087986286730, 0.058712940663099, 0.057042460888624}, { -0.132911577820778, 0.000162165757501, -0.097270518541336, 0.190909355878830, -0.048513438552618, -0.130206182599068, -0.170725390315056, 0.044779445976019, -0.147724002599716, 0.110795192420483, -0.000841517641675, 0.005019511561841}, { -0.192758098244667, 0.024192644283175, -0.000114726492029, -0.007703915704042, 0.078418612480164, -0.009546600282192, -0.151809513568878, -0.106614232063293, 0.079768382012844, 0.012385905720294, 0.005376380402595, -0.060951061546803}, { 0.021810257807374, 0.043978281319141, 0.017642505466938, -0.136243835091591, -0.213801756501198, -0.253773212432861, -0.020483961328864, -0.045339711010456, 0.181710317730904, -0.001019274699502, 0.006733224727213, 0.027434803545475}, { -0.085362493991852, -0.078637950122356, -0.279249072074890, 0.167899578809738, 0.223437368869781, -0.019886160269380, -0.130840525031090, -0.117081753909588, -0.568424880504608, 0.113563612103462, 0.040065366774797, 0.087882012128830}, { -0.395172059535980, -0.003870030865073, 0.172444596886635, -0.025016365572810, -0.002684155479074, -0.224874481558800, -0.040229968726635, 0.234326153993607, -0.062778428196907, 0.086237169802189, -0.099423922598362, 0.037745237350464}, { -0.231701493263245, 0.132302671670914, -0.080844700336456, 0.006619096267968, 0.077683560550213, -0.100505329668522, 0.007436648476869, -0.116997897624969, -0.000161996154930, 0.103329949080944, -0.017095483839512, 0.067163541913033}, { -0.016881626099348, -0.155190944671631, 0.060706142336130, -0.005786150228232, 0.142034292221069, -0.109512716531754, 0.132310748100281, 0.045824155211449, -0.036462940275669, -0.031263727694750, -0.028715247288346, -0.130808278918266}, { -0.282041698694229, -0.003991052974015, -0.076522067189217, 0.022747982293367, 0.049519300460815, 0.012383473105729, 0.155077829957008, 0.056230150163174, -0.044431291520596, -0.019789543002844, -0.001892088679597, -0.066752977669239} },
     { { -0.096025429666042, -0.056030049920082, -0.149173751473427, -0.144465014338493, -0.208238646388054, -0.161051020026207, -0.086778745055199, 0.118353709578514, -0.187716200947762, 0.078948006033897, 0.048579256981611, 0.061441466212273}, { -0.133954644203186, -0.056482449173927, -0.004562665242702, 0.033651333302259, -0.110118471086025, -0.064268440008163, -0.243814691901207, 0.129092618823051, -0.099754974246025, -0.112606883049011, 0.049523767083883, -0.048302210867405}, { -0.119625993072987, -0.189787134528160, 0.032427672296762, -0.133946180343628, 0.043477974832058, 0.030413709580898, -0.020601645112038, -0.052664723247290, -0.008537132292986, 0.049237571656704, -0.014071838930249, -0.034635048359632}, { -0.308506906032562, -0.079713560640812, -0.332138419151306, 0.229520931839943, 0.389780849218369, -0.155594214797020, -0.187997207045555, -0.098210342228413, -0.025465719401836, 0.262642979621887, 0.016253003850579, -0.177093476057053}, { 0.090545162558556, -0.259128838777542, -0.154981002211571, 0.494138002395630, 0.458168476819992, -0.310796916484833, 0.299840122461319, 0.575314402580261, -0.000118736978038, -0.313834786415100, -0.025980371981859, -0.051556538790464}, { -0.133676081895828, -0.216901540756226, 0.163467317819595, -0.058258298784494, -0.176928281784058, 0.248649775981903, -0.162842929363251, -0.007541461847723, 0.339677959680557, -0.115426212549210, 0.001602536533028, -0.178169026970863}, { -0.237444162368774, 0.003893822897226, 0.126831039786339, -0.103628620505333, -0.105535909533501, 0.160877406597137, 0.047517962753773, 0.139927610754967, -0.098561264574528, -0.031937576830387, 0.001189252943732, -0.144943624734879}, { -0.225043311715126, 0.188627600669861, -0.029038185253739, -0.068085022270679, -0.118341714143753, -0.130388766527176, -0.085124306380749, 0.026242051273584, 0.054229505360126, 0.097751326858997, 0.001606508740224, -0.093025512993336}, { -0.218449994921684, 0.089089162647724, 0.111566901206970, -0.127558857202530, 0.123042866587639, 0.133895918726921, -0.191864475607872, 0.015383765101433, -0.018514651805162, 0.146970897912979, -0.091795854270458, -0.049776725471020} },
     { { 0.021062852814794, -0.115799576044083, 0.085747368633747, 0.011831672862172, 0.153900325298309, 0.186226412653923, 0.406725376844406, -0.146621286869049, 0.144541263580322, 0.098174370825291, -0.055463165044785, -0.186563119292259}, { -0.096710026264191, -0.129327192902565, 0.141449138522148, 0.106729350984097, 0.373794853687286, 0.259148001670837, 0.213253006339073, -0.109700091183186, 0.103963404893875, 0.233340695500374, -0.215382888913155, -0.010129944421351}, { 0.389798462390900, 0.130870088934898, 0.043859384953976, 0.248680427670479, -0.074852421879768, 0.001738177379593, 0.050659790635109, 0.315685361623764, -0.026280362159014, -0.094258561730385, -0.009339095093310, 0.098602443933487}, { 0.205113366246223, 0.192231267690659, 0.179928496479988, -0.221430510282516, -0.252521753311157, 0.158793777227402, -0.083451181650162, -0.030822452157736, -0.243202880024910, 0.155347123742104, -0.043440617620945, 0.123650662600994}, { -0.339609265327454, -0.000347199704265, -0.487565070390701, 0.626522660255432, 0.327200531959534, -0.060603290796280, -0.220486864447594, -0.506882667541504, -0.098754413425922, 0.785976111888885, -0.168505698442459, -0.089969307184219}, { -0.122217155992985, -0.103538990020752, -0.361892431974411, -0.070242352783680, 0.054739482700825, -0.216050848364830, -0.020303493365645, -0.136325284838676, -0.378195643424988, 0.158059164881706, 0.075540304183960, 0.299350261688232}, { 0.132738813757896, -0.038145892322063, 0.101005628705025, -0.093796908855438, -0.044672597199678, -0.206258669495583, 0.160367965698242, 0.014694987796247, -0.007544754538685, 0.064177051186562, -0.055810220539570, 0.093335948884487}, { -0.053593188524246, -0.027806648984551, -0.272645026445389, 0.167941406369209, 0.012236875481904, 0.152813881635666, 0.036462858319283, 0.059494268149137, -0.109211750328541, -0.140408650040627, 0.180941045284271, -0.069093592464924}, { 0.185044080018997, 0.079972766339779, -0.165073350071907, 0.072580628097057, -0.062013335525990, -0.052091203629971, 0.132674083113670, -0.003657265100628, 0.038265306502581, -0.124168895184994, 0.105771020054817, 0.059046223759651} },
     { { 0.212474510073662, 0.273935645818710, 0.196217030286789, 0.029385274276137, 0.182534009218216, -0.082773566246033, -0.075411774218082, 0.039310421794653, -0.094228371977806, 0.027872374281287, -0.085593588650227, -0.092806838452816}, { 0.538834691047668, 0.213007867336273, 0.093675889074802, 0.201109901070595, 0.077245742082596, -0.039327766746283, 0.163865327835083, 0.116259194910526, -0.217696845531464, 0.007041064556688, -0.041149117052555, -0.083174996078014}, { 0.209903478622437, -0.022404905408621, 0.020830297842622, 0.026659993454814, -0.087356731295586, -0.068152047693729, 0.100960932672024, 0.126303926110268, -0.155012145638466, 0.040369972586632, -0.000601874722634, -0.015098094940186}, { 0.323996961116791, 0.245704635977745, 0.058403044939041, 0.167692318558693, 0.051033236086369, -0.054132230579853, 0.006584347225726, 0.077617913484573, 0.031298935413361, -0.068874202668667, 0.003387225093320, -0.019915226846933}, { -0.108819596469402, 0.309077352285385, 0.018059497699142, 0.308366566896439, 0.040189668536186, -0.034964289516211, -0.323062509298325, 0.213949635624886, -0.154752120375633, -0.044673446565866, -0.024649947881699, -0.057934693992138}, { 0.171005398035049, 0.077056333422661, -0.044480938464403, 0.003655016189441, -0.199315279722214, -0.100478008389473, 0.053338553756475, 0.071073114871979, -0.074122466146946, 0.020369738340378, 0.040912445634604, 0.132008552551270}, { 0.510778188705444, -0.056572631001472, -0.048362296074629, 0.057713948190212, -0.038433652371168, -0.082163192331791, 0.011109422892332, 0.033087052404881, -0.047332908958197, -0.034730732440948, 0.021483588963747, 0.066074103116989}, { 0.393518209457397, 0.188310965895653, -0.039390027523041, 0.034963823854923, -0.047115273773670, -0.091996833682060, -0.033117711544037, 0.062423158437014, -0.038270812481642, -0.089719228446484, 0.038608647882938, 0.094581425189972}, { 0.377223074436188, -0.032790537923574, -0.154720768332481, -0.040173746645451, -0.104834958910942, -0.076247327029705, 0.113563820719719, 0.013605477288365, -0.018443241715431, 0.011373518034816, 0.058197338134050, 0.038683064281940} },
     { { -0.100338451564312, -0.074143871665001, 0.128425896167755, -0.193639144301414, 0.159566938877106, 0.246482297778130, 0.070134237408638, -0.049052182585001, 0.013119253329933, 0.122732415795326, -0.087602846324444, -0.197587504982948}, { 0.317887425422668, -0.195768579840660, 0.109684146940708, 0.180729478597641, 0.226782321929932, 0.162704899907112, 0.200017213821411, 0.117323078215122, -0.094210162758827, -0.133370995521545, -0.076908729970455, -0.118420176208019}, { -0.011762442998588, -0.069966286420822, 0.091408558189869, -0.134254872798920, -0.121729075908661, 0.051675904542208, 0.121671371161938, 0.150495722889900, 0.029667617753148, -0.010352754965425, -0.006549278739840, -0.071577481925488}, { 0.358290374279022, 0.047253310680389, 0.334667801856995, -0.197295263409615, 0.027452321723104, 0.132841870188713, 0.041091244667768, -0.043098777532578, 0.057363811880350, 0.093883901834488, -0.113834358751774, -0.051186531782150}, { 0.151890054345131, -0.108763575553894, -0.155488729476929, 0.318864047527313, 0.248638287186623, 0.101303569972515, 0.114973381161690, -0.048046540468931, -0.253921270370483, -0.085573069751263, 0.009567957371473, 0.115731902420521}, { 0.255955040454865, -0.328076243400574, -0.020801559090614, 0.157854944467545, -0.039285615086555, 0.123698540031910, 0.122978232800961, 0.264043867588043, -0.080529756844044, 0.118607230484486, -0.036081079393625, -0.102029748260975}, { 0.278202801942825, -0.130492538213730, 0.093911238014698, -0.097249537706375, -0.115696191787720, -0.019865689799190, 0.133654102683067, 0.146281510591507, -0.017944902181625, 0.045634005218744, -0.019554747268558, -0.018845029175282}, { 0.374959915876389, -0.189447671175003, -0.092796251177788, 0.045856159180403, -0.114005617797375, 0.264902621507645, 0.006646179128438, 0.122540496289730, -0.052415326237679, -0.073689103126526, 0.019529813900590, -0.082317531108856}, { 0.266744524240494, -0.173005521297455, -0.104792974889278, -0.037599079310894, -0.171152219176292, 0.102040387690067, 0.060946654528379, 0.058210868388414, 0.009806264191866, 0.043906841427088, 0.045262970030308, 0.048721354454756} },
     { { -0.166228637099266, 0.300923347473145, 0.058525264263153, 0.010979049839079, 0.011627335101366, -0.141706690192223, 0.026068076491356, 0.004144004080445, 0.035601217299700, -0.054632522165775, 0.018706887960434, -0.032495733350515}, { -0.112504780292511, -0.066282756626606, -0.056635424494743, -0.026837065815926, 0.005397052038461, -0.175633028149605, 0.077203541994095, 0.067350655794144, -0.047345880419016, 0.189584553241730, -0.007439466658980, -0.098322398960590}, { 0.010471551679075, -0.083091959357262, -0.121855892241001, 0.174871996045113, -0.021951327100396, -0.110594943165779, 0.122265219688416, 0.103969506919384, -0.111802645027637, -0.019954200834036, 0.037269573658705, 0.035451803356409}, { -0.148222416639328, -0.250354856252670, 0.035977430641651, 0.078088484704494, 0.052170746028423, -0.021097356453538, -0.037555612623692, 0.069901980459690, 0.047398041933775, -0.046237371861935, -0.020284418016672, -0.003774388460442}, { -0.242191627621651, -0.115901172161102, 0.438578933477402, -0.030051905661821, -0.220473393797874, -0.700949490070343, 0.059528559446335, -0.091340981423855, 0.307469099760056, 0.122303910553455, -0.170726016163826, -0.215683698654175}, { -0.193649843335152, 0.097848527133465, -0.155100479722023, 0.092479974031448, 0.026883104816079, -0.082489527761936, -0.056729540228844, -0.158249333500862, -0.134197399020195, -0.056428022682667, 0.090166456997395, -0.015409457497299}, { -0.130309075117111, 0.204945042729378, -0.053507160395384, 0.138948202133179, -0.025550536811352, -0.151573821902275, -0.022003436461091, 0.123684518039227, -0.027208492159843, -0.092265792191029, 0.045535691082478, -0.010231921449304}, { -0.117010675370693, -0.166633531451225, -0.088651366531849, -0.107453577220440, -0.187472224235535, -0.451909869909286, 0.209514901041985, 0.163670793175697, 0.104651525616646, 0.051881644874811, 0.049897648394108, 0.060884784907103}, { -0.036869969218969, 0.096405692398548, 0.019547451287508, 0.047317504882813, 0.067396312952042, -0.132725864648819, -0.056447152048349, -0.029210373759270, -0.038435146212578, -0.076938830316067, -0.010776308365166, -0.082174487411976} }
     };
///layer 4
static double weights_layer4[12][9][12] = {
    { { -0.149580925703049, -0.024811241775751, -0.114350013434887, -0.064660526812077, 0.018692294135690, 0.034302167594433, -0.092277862131596, -0.000546835653950, -0.091880142688751, -0.044667493551970, 0.004198636859655, -0.199972197413445}, { -0.191490560770035, -0.151437908411026, -0.117364734411240, -0.017694441601634, 0.088771857321262, -0.035309921950102, -0.074887573719025, -0.060845565050840, 0.009811622090638, -0.040372893214226, 0.080535799264908, -0.257961332798004}, { -0.173907786607742, 0.119916521012783, -0.152121335268021, -0.027227172628045, 0.054727651178837, -0.023464770987630, -0.082826130092144, -0.063656270503998, 0.056831795722246, -0.035117216408253, -0.055970460176468, -0.174828842282295}, { -0.329675078392029, 0.143656596541405, -0.187340974807739, -0.179579675197601, -0.023873198777437, 0.326652258634567, -0.175126671791077, 0.138569727540016, -0.094089940190315, -0.040305234491825, -0.026582177728415, -0.163387671113014}, { -0.571227490901947, 0.251953035593033, -0.403750002384186, -0.174182191491127, 0.102625295519829, 0.344628244638443, -0.292734831571579, 0.114693030714989, 0.109320417046547, -0.084055535495281, 0.160744175314903, -0.418904215097427}, { -0.212895900011063, 0.000699052645359, -0.080957919359207, -0.126656621694565, 0.073690086603165, 0.031732968986034, -0.100878380239010, -0.054297365248203, -0.127452671527863, -0.064382493495941, -0.184949487447739, -0.350886583328247}, { -0.079471133649349, -0.091814503073692, -0.126923725008965, -0.077151104807854, -0.055934354662895, 0.186172500252724, -0.018710559234023, 0.109325826168060, -0.058212973177433, -0.004319484345615, -0.004645130131394, 0.084599770605564}, { -0.228790402412415, -0.032260909676552, -0.174620941281319, -0.136155903339386, 0.024379093199968, 0.017282133921981, -0.067302122712135, 0.224550619721413, 0.146349146962166, -0.033616717904806, 0.166852131485939, -0.294085562229156}, { -0.144196748733521, -0.076801605522633, -0.099417969584465, -0.102895706892014, -0.010605915449560, 0.099831573665142, -0.015063107945025, 0.060716573148966, -0.074886590242386, -0.023601517081261, -0.036360051482916, -0.174568995833397} },
     { { -0.142423093318939, -0.057473827153444, 0.081177622079849, -0.032742775976658, 0.067833133041859, -0.097306594252586, -0.123044759035110, -0.101917147636414, 0.138410925865173, -0.020268898457289, -0.025666886940598, -0.209914371371269}, { -0.266933977603912, 0.360143512487411, 0.154031768441200, 0.109140865504742, 0.230144143104553, -0.109177552163601, -0.075093030929565, -0.232834294438362, -0.109731413424015, -0.026429399847984, 0.021295132115483, -0.424623817205429}, { -0.088580571115017, -0.082401283085346, 0.004041034728289, 0.090608097612858, 0.166098862886429, -0.122479639947414, 0.054247517138720, -0.003269407432526, -0.041364543139935, -0.013656205497682, -0.067334197461605, -0.144324809312820}, { 0.203614011406898, -0.415538758039474, 0.160473227500916, 0.185120314359665, 0.060141816735268, -0.230411455035210, -0.322393327951431, 0.313376158475876, 0.083019159734249, 0.029574593529105, -0.136823564767838, 0.089382126927376}, { -0.041476398706436, 0.240945756435394, 0.327879011631012, -0.012790675275028, -0.143970936536789, 0.047609243541956, 0.007348826155066, 0.064538158476353, -0.102158598601818, -0.003887051483616, -0.065143689513206, 0.235952943563461}, { 0.037332128733397, 0.159630224108696, -0.182726725935936, 0.000967521802522, 0.296430200338364, -0.247857496142387, 0.046785123646259, 0.187660261988640, -0.146738395094872, -0.096007704734802, -0.139095410704613, -0.040952894836664}, { 0.045826379209757, -0.091506570577621, 0.040527727454901, 0.028062557801604, 0.248486757278442, -0.025444447994232, 0.121392957866192, -0.140600144863129, 0.316318124532700, 0.029836190864444, -0.011804139241576, 0.136441677808762}, { 0.174831271171570, 0.173934891819954, 0.154775723814964, 0.364693313837051, 0.272791892290115, -0.067651458084583, 0.267745852470398, 0.050289906561375, -0.093602135777473, -0.045848559588194, 0.135800331830978, 0.227793708443642}, { 0.215307608246803, 0.111876502633095, 0.196038752794266, -0.025654854252934, 0.063931472599506, -0.241437762975693, 0.202429801225662, -0.094934292137623, 0.156514555215836, 0.086195416748524, 0.151324868202209, 0.048205260187387} },
     { { -0.149536713957787, -0.073877081274986, -0.063854701817036, -0.038087978959084, 0.091113649308681, 0.069351844489574, -0.096494473516941, 0.051598984748125, -0.057387854903936, -0.003961015027016, -0.002044260967523, 0.054571345448494}, { -0.396884202957153, -0.190941095352173, -0.511591911315918, -0.155817136168480, 0.213402986526489, 0.232553362846375, -0.240596830844879, 0.192908689379692, -0.128629803657532, -0.105967797338963, -0.017502970993519, -0.060661606490612}, { -0.128924548625946, -0.063433177769184, -0.111708521842957, -0.039528492838144, 0.143358349800110, 0.016202630475163, -0.079157583415508, -0.012319090776145, -0.151797279715538, 0.001004682853818, -0.433287262916565, -0.035236857831478}, { 0.012142454273999, -0.119593024253845, -0.093383766710758, -0.030898740515113, -0.067063704133034, 0.190839603543282, 0.007742620538920, -0.062983781099319, 0.078596100211143, 0.062730148434639, -0.013389920815825, 0.241599187254906}, { -0.282484322786331, -0.347049742937088, -0.306762635707855, -0.457355409860611, 0.569391727447510, -0.026896312832832, 0.494435757398605, 0.111256420612335, -0.393464297056198, 0.329768240451813, -0.255257040262222, 0.222138777375221}, { 0.279544472694397, 0.014124968089163, -0.007688868325204, -0.046646758913994, 0.048792768269777, 0.081875562667847, -0.007616236805916, -0.096415109932423, -0.174568146467209, -0.043327827006578, -0.326280623674393, -0.382177472114563}, { 0.033760618418455, 0.058809805661440, 0.015976475551724, 0.034682109951973, 0.013887486420572, 0.010224766097963, -0.042521946132183, 0.078299924731255, -0.036174766719341, -0.002113611437380, 0.030340174213052, 0.034722857177258}, { -0.021247984841466, -0.095296025276184, 0.036821763962507, -0.045466426759958, 0.037364576011896, 0.028410004451871, 0.059732541441917, -0.001598321832716, -0.131001040339470, -0.008579093031585, -0.156672239303589, -0.052380181849003}, { 0.257054597139359, 0.069318935275078, 0.157135412096977, -0.016182757914066, -0.020835133269429, -0.026597796007991, 0.002991372719407, -0.152305498719215, -0.213317021727562, -0.047196432948112, -0.060608502477407, -0.123593732714653} },
     { { -0.091298572719097, 0.058618132025003, 0.010264972224832, 0.109414927661419, -0.044907625764608, 0.061773989349604, -0.070560991764069, 0.007746113929898, 0.024865468963981, 0.023386470973492, -0.050954654812813, 0.139474749565125}, { -0.171886608004570, -0.104920126497746, -0.248156413435936, -0.060487806797028, 0.029547326266766, 0.171069547533989, -0.114119932055473, -0.065344154834747, 0.031592138111591, -0.012637833133340, -0.188481748104095, 0.164267286658287}, { -0.123600639402866, 0.055803459137678, -0.048158410936594, 0.036702040582895, -0.018575720489025, 0.033360667526722, -0.074167147278786, 0.080165669322014, 0.023840138688684, 0.015441015362740, -0.136394247412682, 0.063099920749664}, { -0.054526589810848, -0.134921312332153, -0.199895501136780, -0.003430144395679, -0.018366448581219, 0.184748068451881, -0.079050056636333, 0.006625926122069, -0.038987062871456, -0.026368949562311, -0.066003225743771, -0.161936581134796}, { -0.121665000915527, 0.075733684003353, -0.262225359678268, -0.465171337127686, 0.127642065286636, 0.266722232103348, -0.085422001779079, 0.085951089859009, -0.087200500071049, -0.019962806254625, -0.027160579338670, -0.164371713995934}, { 0.083423055708408, 0.021735545247793, -0.146691098809242, 0.012117915786803, 0.112624391913414, 0.185347452759743, -0.225037440657616, -0.040779221802950, -0.096425466239452, -0.097540460526943, -0.034535069018602, -0.291466802358627}, { 0.008531139232218, -0.056026048958302, 0.162045747041702, 0.001302706077695, -0.128862187266350, 0.152902752161026, -0.051690671592951, 0.027875430881977, 0.122297093272209, 0.037288885563612, 0.033925008028746, 0.126108974218369}, { -0.157659903168678, -0.000475631415611, -0.224920630455017, -0.226560726761818, -0.010305829346180, 0.120766133069992, 0.223368182778358, 0.110176883637905, -0.004850676748902, 0.004531707614660, 0.024674609303474, 0.028718382120132}, { -0.005880786105990, 0.059907894581556, -0.107146672904491, -0.049475759267807, 0.021747410297394, 0.087582543492317, -0.035379398614168, -0.010075381025672, -0.107170552015305, -0.008841591887176, -0.076440319418907, -0.124175541102886} },
     { { -0.232579335570335, 0.098235800862312, -0.082132108509541, -0.144648119807243, 0.047603569924831, 0.064756549894810, -0.096813715994358, 0.026883907616138, -0.013264996930957, -0.034509968012571, 0.111821748316288, -0.222171768546104}, { -0.135315477848053, -0.044422391802073, 0.213995128870010, -0.049544021487236, 0.043377950787544, -0.042523533105850, 0.218639463186264, -0.071895167231560, 0.136525303125381, 0.004459154792130, 0.009859815239906, -0.298355609178543}, { -0.120873719453812, -0.080457828938961, 0.075776681303978, -0.010748210363090, -0.019796490669250, -0.101412452757359, 0.119046755135059, -0.097231395542622, -0.031212689355016, -0.001048783189617, 0.164793252944946, -0.041109427809715}, { -0.071539483964443, -0.373835146427155, -0.147579386830330, -0.039115622639656, 0.085523031651974, -0.118872009217739, 0.058923520147800, 0.187585607171059, -0.251161575317383, -0.015588574111462, -0.102613002061844, -0.201343670487404}, { 0.708258688449860, 0.220098346471786, 0.339627683162689, 0.412197738885880, -0.141344159841537, -0.165595963597298, -0.641696393489838, -0.487476170063019, 0.654083371162415, 0.193330660462379, 0.535098731517792, -0.407780975103378}, { 0.152453243732452, -0.098259091377258, 0.247989833354950, -0.207191467285156, -0.184909328818321, -0.257559835910797, 0.265944451093674, -0.107649013400078, 0.227909028530121, 0.108514048159122, -0.048337187618017, 0.129279807209969}, { 0.046126700937748, 0.162086620926857, -0.116937391459942, 0.020275650545955, 0.003686177777126, -0.031530898064375, -0.087280593812466, -0.100377097725868, 0.005697804968804, 0.013920799829066, 0.015723280608654, 0.006753665860742}, { 0.108775228261948, -0.147561118006706, 0.156408309936523, 0.066635899245739, -0.066890478134155, -0.069420531392097, 0.067285507917404, -0.099960580468178, -0.139760196208954, -0.009742121212184, 0.002694445196539, -0.008259988389909}, { 0.051435105502605, -0.257759481668472, 0.139598727226257, 0.088869728147984, -0.108495272696018, -0.192221745848656, 0.149356111884117, -0.097675390541553, -0.184481263160706, -0.009122562594712, -0.058645617216825, -0.067440658807755} },
     { { -0.119965977966785, 0.278299540281296, -0.047339364886284, -0.095129147171974, 0.111878499388695, 0.026425130665302, 0.014066554605961, 0.047340054064989, 0.303336918354034, -0.023971233516932, -0.033432129770517, -0.051696628332138}, { 0.211690142750740, -0.282562524080276, 0.013898979872465, 0.300593823194504, -0.348928451538086, -0.017118299379945, -0.224333792924881, 0.015827713534236, -0.317034453153610, -0.029576675966382, -0.023415492847562, -0.162126913666725}, { -0.153072655200958, -0.058647036552429, 0.004096921533346, -0.142744243144989, 0.069046698510647, 0.136552900075912, 0.048589881509542, -0.136917173862457, 0.047046050429344, 0.034636747092009, -0.104944877326488, 0.200350701808929}, { 0.441417306661606, 0.232976287603378, 0.153595224022865, 0.233874768018723, -0.526155710220337, 0.123550131917000, -0.373210757970810, -0.033520840108395, 0.241734474897385, 0.048828829079866, -0.030863972380757, 0.122516535222530}, { -0.570586800575256, -0.134686604142189, 0.004789760336280, -0.292445778846741, 0.609836876392365, 0.052544288337231, 0.397694379091263, 0.059911895543337, -0.505434751510620, 0.059919383376837, 0.027557894587517, 0.323392570018768}, { 0.425735384225845, 0.307684808969498, 0.127096340060234, 0.033835869282484, 0.047749120742083, 0.309543311595917, -0.102251879870892, 0.253205239772797, 0.003944340161979, -0.059557855129242, 0.356700539588928, -0.226574942469597}, { -0.068869687616825, 0.213740766048431, 0.133341297507286, 0.080403693020344, 0.039455354213715, 0.036769278347492, 0.203423857688904, -0.117756068706512, -0.308190882205963, -0.001437184051611, 0.198718592524529, 0.137161463499069}, { -0.000586075591855, 0.006935549434274, 0.016816770657897, -0.191737025976181, -0.197223559021950, 0.113619759678841, 0.089035615324974, 0.129623755812645, -0.066934220492840, -0.049028486013412, 0.025898577645421, -0.241630822420120}, { 0.061821449548006, -0.006780648138374, 0.007030077278614, 0.262562423944473, -0.094409950077534, -0.041198134422302, -0.178608983755112, -0.074843101203442, -0.117967963218689, -0.017253205180168, -0.033638834953308, -0.065307110548019} },
     { { 0.420572429895401, 0.125379830598831, 0.114198602735996, -0.059428248554468, 0.024050876498222, -0.291817188262939, -0.088758289813995, 0.031483802944422, 0.031974110752344, 0.025451239198446, 0.067697182297707, 0.062839344143867}, { -0.378274857997894, -0.241012558341026, 0.010303098708391, 0.062925070524216, -0.052111279219389, 0.053168568760157, -0.026133127510548, -0.002492657862604, -0.080542258918285, -0.009179482236505, -0.016440227627754, -0.038495540618896}, { -0.179242223501205, -0.030519725754857, 0.019137382507324, -0.015304785221815, 0.198478385806084, -0.013493372127414, -0.057811811566353, -0.027107104659081, -0.018770633265376, -0.012683221139014, -0.147208333015442, 0.073823072016239}, { 0.043475676327944, 0.227604627609253, -0.000149846833665, 0.116874106228352, -0.125105828046799, 0.047071337699890, -0.031456161290407, -0.090426944196224, 0.040070850402117, 0.000846936774906, 0.132105395197868, 0.059832133352757}, { -0.222348481416702, 0.186883226037025, 0.054681371897459, -0.225153803825378, 0.329040378332138, 0.572427451610565, -0.396307259798050, 0.350815474987030, 0.184917569160461, -0.002124431775883, 0.138876408338547, -0.230937063694000}, { -0.288434505462646, -0.135425537824631, -0.203630402684212, -0.379312843084335, 0.123830109834671, 0.028375715017319, -0.022152826189995, 0.071993306279182, 0.123830065131187, 0.010390218347311, 0.320361793041229, 0.095322780311108}, { 0.286131411790848, 0.110121324658394, -0.024762824177742, -0.068108774721622, -0.114508077502251, 0.004772813525051, -0.147636994719505, -0.076849855482578, 0.300602078437805, 0.029288118705153, -0.066030792891979, 0.097045652568340}, { 0.079056575894356, -0.071403294801712, 0.082820996642113, -0.145397201180458, 0.234860524535179, -0.082618184387684, -0.366644352674484, -0.030495006591082, -0.338432312011719, -0.012498340569437, -0.270172446966171, 0.018880534917116}, { -0.081611879169941, -0.028198136016726, 0.016509203240275, -0.040705274790525, 0.003813528222963, 0.007063315715641, 0.009783218614757, 0.085117526352406, -0.084794536232948, -0.013489966280758, 0.009414463303983, -0.089396297931671} },
     { { -0.190173089504242, 0.061293859034777, -0.042802672833204, -0.064298026263714, -0.061085689812899, 0.164034157991409, -0.072442583739758, 0.162376135587692, -0.182817429304123, -0.001575030502863, -0.036252815276384, 0.025045491755009}, { 0.455045461654663, 0.184482038021088, 0.215697422623634, 0.024034835398197, -0.067685686051846, -0.069533109664917, -0.139585897326469, 0.014742023311555, -0.062790393829346, 0.051244501024485, -0.102294243872166, 0.186524286866188}, { 0.016004489734769, -0.095580302178860, 0.023947577923536, -0.191713243722916, 0.011092695407569, 0.082570694386959, 0.114471606910229, 0.081981591880322, -0.053269136697054, -0.007884114980698, 0.031102977693081, -0.103089071810246}, { -0.032540854066610, -0.478311717510223, -0.128224000334740, -0.137145131826401, 0.150086224079132, -0.051856812089682, -0.026069149374962, 0.101807415485382, -0.396110951900482, -0.077874541282654, -0.126624271273613, -0.045362282544374}, { -0.033358279615641, 0.034913800656796, -0.495797902345657, 0.460523933172226, 0.179675683379173, 0.255155682563782, -0.104258500039577, 0.050601355731487, 0.070227354764938, 0.006176050752401, 0.520992875099182, -0.147385135293007}, { -0.177994951605797, 0.121229462325573, -0.166171699762344, -0.086508095264435, -0.013863537460566, 0.179169669747353, 0.003544110339135, 0.152400866150856, -0.003278324846178, 0.043298371136189, 0.313116610050201, 0.157514706254005}, { 0.022049957886338, 0.130651995539665, 0.020402491092682, 0.002781262621284, -0.157402783632278, 0.092322587966919, -0.076917268335819, 0.133123159408569, 0.013445820659399, 0.020638875663280, 0.029312686994672, -0.073748946189880}, { 0.179234430193901, -0.102095983922482, -0.006080062128603, 0.023001475259662, 0.160064414143562, -0.064023405313492, -0.085057139396667, -0.064509026706219, -0.080303445458412, 0.033926919102669, -0.108552008867264, 0.080287694931030}, { -0.058989703655243, -0.149822920560837, -0.118454039096832, -0.031054496765137, 0.036472804844379, 0.013650804758072, -0.105901651084423, 0.146983936429024, 0.126905634999275, 0.007804998662323, -0.033932041376829, -0.010494011454284} },
     { { -0.018097022548318, 0.418737411499023, 0.034823004156351, -0.002558554988354, -0.062872461974621, 0.072649195790291, -0.023034056648612, 0.034917149692774, 0.149470627307892, -0.036953337490559, -0.113547518849373, -0.123348541557789}, { -0.009725141339004, -0.150836989283562, 0.167633339762688, 0.113063588738441, -0.226123586297035, -0.157538950443268, 0.157807722687721, -0.309649735689163, -0.028658915311098, -0.008421646431088, -0.284473687410355, -0.029715491458774}, { 0.022068830206990, 0.123982086777687, 0.092202581465244, 0.133661881089211, -0.076712474226952, -0.243328586220741, 0.026487346738577, 0.021731186658144, -0.046857293695211, 0.017290871590376, 0.031703863292933, 0.047647885978222}, { 0.065528683364391, 0.112784408032894, 0.108723483979702, 0.054538838565350, -0.103495962917805, -0.065447360277176, 0.021216312423348, -0.023592989891768, 0.010973295196891, 0.066022776067257, -0.243301048874855, 0.211289912462234}, { 0.101836875081062, 1.217940330505371, 0.085678741335869, -0.009627802297473, 0.251242995262146, -0.136252686381340, -0.376823037862778, 0.194624111056328, -0.660791635513306, 0.019178509712219, -0.124113321304321, 0.253173261880875}, { 0.071955233812332, 0.270357042551041, 0.092570312321186, 0.130274727940559, -0.160261839628220, 0.143713057041168, 0.041200779378414, 0.109789945185184, -0.401933103799820, -0.052979871630669, -0.259443640708923, -0.139999344944954}, { -0.024785039946437, 0.005283887032419, 0.019009852781892, 0.018533961847425, -0.094896830618382, 0.000953732233029, -0.017830379307270, -0.084920443594456, 0.071996740996838, -0.012110902927816, 0.000322204054100, 0.086535334587097}, { -0.036239124834538, 0.124316170811653, 0.099157445132732, 0.018741790205240, -0.140218645334244, 0.005675919819623, 0.108931787312031, -0.042816501110792, -0.152795612812042, 0.008697892539203, 0.021733544766903, 0.067223653197289}, { -0.065354250371456, -0.015958026051521, 0.020450538024306, 0.111635066568851, -0.100463069975376, 0.059761427342892, -0.025133864954114, 0.133758664131165, -0.353317499160767, -0.027636663988233, -0.106892600655556, -0.073631957173347} },
     { { -0.048188377171755, -0.149592325091362, -0.050738770514727, 0.053147163242102, 0.041484486311674, 0.028664508834481, -0.133285418152809, -0.045884076505899, -0.182398289442062, 0.007615679875016, -0.095695026218891, 0.109438814222813}, { -0.076241940259933, -0.250774681568146, -0.141465157270432, -0.048770695924759, 0.177753791213036, 0.089007638394833, -0.034157957881689, -0.046477999538183, 0.208190798759460, -0.022968493402004, -0.033549498766661, -0.084555849432945}, { 0.044552650302649, -0.229398235678673, -0.009367712773383, 0.060727335512638, 0.068264581263065, -0.002163765253499, -0.034065056592226, 0.066066302359104, -0.134173676371574, 0.006028207484633, -0.030171418562531, 0.049372654408216}, { -0.098211348056793, 0.282985836267471, 0.085492841899395, 0.022720605134964, -0.086889550089836, 0.141239210963249, 0.025773517787457, 0.032116603106260, 0.271012395620346, -0.018852677196264, 0.117075316607952, -0.093644864857197}, { 0.572474896907806, 0.460529744625092, 0.719141423702240, 0.091890551149845, -0.012620582245290, -0.350387364625931, 0.138402476906776, -0.183449521660805, 0.013214749284089, 0.269321143627167, 0.149791374802589, -0.112212456762791}, { -0.197259709239006, 0.244277462363243, -0.110369347035885, -0.027460636571050, 0.032312028110027, 0.112273998558521, 0.194418385624886, 0.089587233960629, -0.188228607177734, -0.104764290153980, 0.360647827386856, -0.432185053825378}, { -0.013310175389051, -0.077561959624290, 0.083953201770782, -0.023052947595716, -0.136191934347153, 0.125360414385796, -0.058864101767540, 0.003991009201854, -0.000234737366554, 0.035543043166399, -0.027786897495389, 0.096660777926445}, { -0.134261369705200, 0.050870250910521, 0.010125300846994, -0.151267647743225, 0.040867310017347, 0.035138659179211, 0.222483515739441, -0.023222682997584, -0.103356197476387, -0.065541632473469, 0.204365715384483, -0.005436451174319}, { 0.114263318479061, 0.154473856091499, 0.039366003125906, -0.044995412230492, -0.051415707916021, -0.000862921122462, 0.025501837953925, 0.068068817257881, -0.246617600321770, -0.024925110861659, -0.028447275981307, -0.259970784187317} },
     { { 0.352576434612274, 0.047203335911036, -0.019187439233065, -0.004994954913855, 0.012161634862423, -0.190942868590355, 0.027098055928946, 0.034341603517532, 0.023775078356266, 0.025761431083083, -0.000703235389665, 0.143453478813171}, { 0.144564777612686, 0.246906012296677, 0.050956014543772, 0.119451329112053, -0.299266189336777, -0.032101694494486, 0.109456926584244, 0.064157597720623, -0.098894350230694, -0.017873374745250, 0.232649698853493, 0.196059554815292}, { -0.019276037812233, 0.035758182406425, -0.041517868638039, 0.042598992586136, -0.016415370628238, -0.046995494514704, -0.041852723807096, 0.026310864835978, 0.116171628236771, 0.030825436115265, -0.273342460393906, -0.036777298897505}, { -0.183656498789787, 0.145472124218941, -0.034380596131086, -0.003556765848771, 0.104518190026283, -0.191189795732498, 0.260369002819061, 0.023237152025104, -0.111917272210121, -0.038662031292915, -0.077682167291641, -0.212524622678757}, { 0.324528545141220, -0.219832345843315, 0.644073665142059, 1.059460401535034, 0.123216785490513, -0.941852509975433, 0.796640217304230, -0.736189067363739, 0.195609256625175, 1.062792301177979, 0.025952089577913, -0.330679178237915}, { -0.175103500485420, 0.111438438296318, -0.230129927396774, 0.083917438983917, 0.220311090350151, 0.089944742619991, -0.332681030035019, 0.028519507497549, -0.129837200045586, -0.034782323986292, -0.116066977381706, -0.214133024215698}, { -0.071467280387878, -0.019620770588517, -0.124765396118164, -0.138594746589661, 0.065485022962093, -0.003709593089297, 0.047584097832441, -0.130072310566902, 0.129067510366440, -0.028475193306804, -0.102604486048222, 0.181692600250244}, { -0.273592591285706, 0.071311123669147, -0.103788673877716, -0.038650881499052, 0.031032096594572, 0.031458813697100, 0.046521365642548, 0.047734428197145, -0.010442060418427, -0.003854146227241, -0.077616237103939, -0.069327935576439}, { -0.088408365845680, 0.019930528476834, -0.026871303096414, 0.018121460452676, 0.009917084127665, 0.028087221086025, -0.049491047859192, 0.016018139198422, 0.103451132774353, -0.053014922887087, -0.065346628427505, 0.119501657783985} },
     { { 0.149687871336937, 0.054128076881170, 0.157130897045135, 0.096860937774181, -0.157799944281578, -0.090435378253460, 0.112738162279129, -0.053466834127903, 0.004624873399734, -0.005305787082762, -0.025281779468060, -0.108128786087036}, { 0.072039909660816, 0.103541053831577, 0.138623192906380, 0.053894974291325, 0.034477010369301, -0.054655570536852, -0.114522136747837, -0.093490600585938, 0.008044640533626, -0.040426276624203, -0.076918751001358, -0.165753215551376}, { 0.096587233245373, -0.001464891131036, 0.078402720391750, -0.013776139356196, 0.083916567265987, 0.050153728574514, 0.023138510063291, 0.030166275799274, -0.061456739902496, -0.000847827119287, 0.255742996931076, 0.098440751433372}, { 0.039523124694824, -0.216182664036751, 0.133193641901016, 0.297652453184128, 0.058277640491724, 0.000142019882333, -0.238728404045105, -0.231199696660042, 0.083502218127251, 0.041272696107626, 0.169507712125778, -0.058197516947985}, { 0.328297764062881, 0.025140417739749, -0.363855123519897, -0.540056228637695, -0.300966471433640, 0.256249994039536, -0.541036367416382, 0.230245575308800, -0.405112653970718, 0.014441387727857, -0.335203915834427, -0.104124873876572}, { -0.177456006407738, -0.024897309020162, -0.096431054174900, -0.217480346560478, -0.061890106648207, 0.220089897513390, 0.029176874086261, -0.018264306709170, -0.239498257637024, 0.022593494504690, 0.111274316906929, 0.012698162347078}, { 0.171174243092537, -0.063848182559013, 0.088834218680859, 0.016331445425749, 0.002507419791073, 0.039924778044224, -0.112126894295216, 0.257154911756516, -0.006063853856176, -0.002030555857345, -0.077637813985348, -0.021947143599391}, { 0.011759228073061, 0.207703128457069, -0.132334306836128, -0.107151687145233, 0.084396891295910, 0.041234944015741, -0.073519997298717, 0.140163034200668, -0.082935877144337, -0.015463968738914, 0.090073600411415, -0.055757548660040}, { -0.115688219666481, 0.060631271451712, -0.200357213616371, -0.118980064988136, -0.006132252980024, 0.084124431014061, -0.150713905692101, 0.139192745089531, 0.039280973374844, -0.007058590184897, -0.002886634552851, -0.026950137689710} }
};
///layer 5
static double weights_layer5[12][9][12] = {
    { { -0.052354894578457, 0.117396026849747, -0.139547988772392, -0.075052738189697, 0.107627376914024, 0.074624449014664, -0.031580381095409, 0.107539273798466, 0.192945733666420, 0.202719360589981, 0.067974157631397, 0.041394930332899}, { -0.058720115572214, 0.008397462777793, -0.084803238511086, -0.116142340004444, 0.288715124130249, 0.033396933227777, 0.112590849399567, 0.197389960289001, 0.306545346975327, 0.235972911119461, 0.235237881541252, 0.215409189462662}, { 0.045367527753115, 0.079168215394020, -0.020351052284241, -0.039707794785500, -0.109536513686180, -0.087682373821735, 0.066068895161152, 0.073095723986626, -0.102212347090244, -0.209595814347267, 0.078000605106354, 0.058357547968626}, { 0.007663433440030, 0.054792061448097, -0.019647313281894, -0.054758593440056, -0.221742555499077, -0.047990504652262, 0.001432193676010, 0.204251721501350, 0.040302608162165, -0.058870658278465, 0.095826737582684, 0.110309749841690}, { 0.065299175679684, -0.042730718851089, -0.084647089242935, -0.058721221983433, -0.352671891450882, 0.048498526215553, -0.218287825584412, 0.146646544337273, 0.334203392267227, -0.178664326667786, 0.091781422495842, 0.051948916167021}, { 0.025756476446986, 0.125793159008026, -0.061496663838625, -0.224064558744431, 0.073820494115353, -0.051224134862423, 0.129462793469429, -0.025181416422129, -0.001903217751533, -0.058604568243027, 0.155989438295364, 0.119498714804649}, { 0.016364978626370, 0.103122852742672, -0.043762490153313, 0.009880686178803, 0.088073372840881, -0.037130840122700, -0.052474860101938, 0.192589357495308, -0.034174524247646, -0.026340700685978, 0.138621285557747, 0.076677151024342}, { -0.076556950807571, 0.095929212868214, -0.095266677439213, -0.156555220484734, 0.034494094550610, 0.018758619204164, -0.207305341959000, 0.151265382766724, -0.190255999565125, 0.106433197855949, 0.127082750201225, 0.034184947609901}, { 0.014270773157477, -0.012404255568981, -0.029256409034133, -0.145335242152214, 0.188287168741226, 0.001337153837085, 0.052725184708834, 0.063286975026131, -0.079126559197903, 0.024927543476224, 0.117860049009323, 0.027149368077517} },
